tree
version=v4
num_class=1
num_tree_per_iteration=1
label_index=0
max_feature_idx=30
objective=binary sigmoid:1
feature_names=discount Home_policy_ind quoted_amt Prior_carrier_grp Cov_package_type CAT_zone number_drivers total_number_veh primary_parking state_safty quote_year quote_month car_no ownership_type car_age living_status dr_age safty_rating high_education_ind gender_F gender_M month_sin month_cos quote_year_cat credit_score_bin driver_vehicle_ratio county_conversion_rate CAT_zone_conversion_rate Prior_conversion_rate time_since_quote quoted_amt_discount
feature_infos=[0:1] [0:1] [15:108608] -1:4:0:5:2:7:1:6:3:8 [1:3] [1:5] [1:6] [1:8] [1:3] [1:3] [2015:2018] [1:12] [1:8] [1:3] [0:16] [1:3] [4:10.816653826391969] [-6:100] [0:1] [0:1] [0:1] [-1:1] [-1:1] [2015:2018] -1:3:2:1 [0.125:6] [0:0.27631578947368418] [0.077907534794432895:0.1374627712381222] [0.078159645232815905:0.1448251809224867] [6:9.9166666666666661] [30:217216]
tree_sizes=1707 1791 1779 1776 1773 1775 1769 1795 1800 1778 1777 1781 1775 1779 1800 1788 1775 1772 1750 1750 1799 1802 1804 1770 1774 1783 1771 1771 1790 1801 1802 1780 1794 1788 1764 1774 1777 1798 1778 1760 1783 1784 1798 1791 1789 1812 1795 1786 1808 1809 1810 1792 1786 1790 1789 1777 1775 1789 1780 1785 1822 1804 1796 1817 1815 1788 1779 1795 1813 1801 1795 1796 1774 1799 1788 1801 1792 1797 1801 1782 1801 1806 1797 1792 1810 1780 1793 1807 1816 1802 1797 1807 1774 1798 1794 1796 1798 1800 1812 1813 1814 1786 1792 1796 1810 1792 1799 1779 1802 1807 1793 1789 1815 1809 1805 1791 1805 1793 1812 1798 1790 1790 1803 1801 1807 1788 1778 1790 1781 1794 1819 1803 1792 1804 1796 1809 1787 1787 1791 1803 1800 1769 1793 1782 1789 1782 1788 1807 1795 1804 1795 1769 1816 1766 1815 1777 1785 1793 1810 1821 1802 1798 1796 1804 1815 1802 1805 1806 1795 1794 1811 1793 1810 1791 1790 1799 1797 1772 1794 1810 1786 1811 1789 1808 1804 1803 1769 1814 1795 1769 1771 1788 1802 1797 1786 1792 1794 1788 1784 1795 1797 1797 1812 1772 1801 1808 1808 1806 1808 1811 1790 1766 1803 1801 1802 1788 1790 1797 1793 1792 1784 1799 1808 1771 1797 1808 1776 1769 1791 1767 1790 1796 1795 1805 1790 1761 1786 1797 1772 1783 1775 1793 1795 1797 1764 1784 1798 1790 1798 1794 1799 1803 1809 1797 1803 1789 1785 1794 1793 1792 1794 1755 1792 1794 1816 1805 1821 1785 1798 1788 1796 1757 1779 1719 1810 1776 1786 1786 1772 1804 1805 1750 1791 1762 1797 1809 1801 1803 1782 1778 1797 1791 1799 1792 1793 1795 1776 1768 1775 1792 1780 1759 1747 1781 1790 1788 1788 1792 1792 1782 1765 1784 1766 1761 1789 1814 1783 1774 1794 1788 1792 1796 1778 1771 1799 1786 1781 1791 1783 1772 1784 1764 1793 1801 1819 1800 1795 1793 1780 1791 1747 1776 1769 1780 1793 1767 1781 1732 1792 1775 1811 1770 1804 1798 1794 1796 1768 1788 1784 1796 1780 1804 1774 1796 1814 1787 1774 1775 1771 1775 1768 1765 1810 1784 1806 1806 1797 1768 1750 1753 1740 1746 1745 1744 1766 1776 1773 1780 1788 1800 1748 1743 1787 1787 1769 1789 1811 1775 1780 1774 1796 1727 1760 1778 1760 1723 1772 1759 1774 1762 1765 1784 1733 1791 1772 1802 1770 1733 1770 1780 1786 1783 1787 1778 1780 1793 1745 1793 1790 1805 1725 1778 1737 1800 1763 1805 1794 1763 1801 1779 1758 1785 1729 1771 1778 1780 1769 1768 1780 1782 1723 1750 1809 1789 1786 1780 1753 1735 1750 1756 1761 1773 1783 1793 1751 1797 1807 1779 1808 1788 1760 1742 1720 1768 1768 1769 1746 1774 1819 1753 1725 1751 1773 1773 1762 1731 1779 1742 1727 1797 1741 1748 1791 1735 1788 1754 1730 1741 1806 1756 1758 1764 1755 1753 1786 1769 1715 1766 1736 1780 1796 1783 1791 1778 1738 1752 1736 1790 1757 1779 1760 1794 1763 1769 1738 1792 1779 1708 1794 1705 1781 1756 1781 1753 1765 1734 1738 1699 1779 1757 1764 1733 1772 1721 1723 1781 1749 1758 1784 1781 1670 1714 1753 1725 1761 1759 1711 1733 1756 1733 1719 1795 1772 1757 1721 1759 1718 1776 1710 1755 1778 1774 1778 1757 1770 1768 1781 1788 1770 1784 1764 1750 1744 1793 1786 1728 1786 1713 1703 1724 1779 1705 1740 1760 1740 1771 1805 1725 1770 1698 1799 1742 1739 1756 1779 1755 1782 1781 1770 1784 1726 1784 1774 1732 1756 1775 1757 1781 1720 1739 1721 1722 1722 1719 1712 1717 1741 1709 1747 1759 1744 1722 1741 1724 1766 1755 1762 1733 1733 1781 1727 1728 1787 1732 1708 1723 1729 1716 1698 1699 1759 1756 1743 1738 1760 1710 1714 1724 1728 1735 1786 1786 1802 1756 1757 1685 1753 1743 1749 1728 1730 1759 1679 1714 1723 1803 1756 1780 1776 1806 1721 1779 1676 1723 1723 1766 1718 1709 1716 1754 1707 1724 1710 1760 1800 1747 1750 1743 1747 1757 1748 1738 1735 1768 1744 1704 1768 1703 1680 1714 1739 1721 1749 1728 1749 1783 1756 1665 1757 1758 1762 1763 1767 1760 1753 1765 1730 1762 1764 1765 1752 1793 1757 1724 1786 1773 1749 1742 1774 1755 1762 1763 1719 1688 1776 1769 1762 1739 1760 1718 1751 1743 1697 1794 1746 1764 1703 1736 1735 1783 1785 1716 1724 1718 1755 1721 1706 1672 1703 1697 1756 1774 1759 1770 1778 1748 1719 1748 1743 1775 1693 1711 1723 1693 1726 1702 1790 1735 1764 1734 1743 1752 1736 1739 1747 1740 1772 1748 1789 1757 1744 1739 1778 1760 1719 1692 1717 1735 1737 1743 1731 1730 1753 1732 1732 1752 1733 1720 1753 1751 1720 1719 1706 1709 1730 1720 1746 1700 1686 1761 1767 1795 1791 1712 1722 1750 1751 1755 1753 1770 1756 1795 1781 1774 1718 1746 1777 1691 1772 1795 1759 1785 1752 1749 1770 1760 1770 1752 1777 1698 1724 1732 1785 1742 1762 1761 1730 1759 1709 1761 1719 1679 1775 1684 1729 1737 1698 1773 1706 1749 1717 1763 1774 1709 1726 1763 1756 1753 1706 1775 1767 1739 1726 1720 1761 1773 1731 1779 1794 1727 1749 1756 1763 1743 1785 1752 1745 1721 1668 1695 1730 1724 1767 1742 1736 1776 1785 1768 1733 1727 1706 1743 1746 1710 1757 1768 1780 1743 1741 1691 1745 1751 1726 1768 1750 1709 1705 1752 1742 1706 1740 1745 1766 1716 1762 1705 1712 1769 1732 1757 1752 1772 1784 1747 1716 1755 1735 1782 1784 1725 1796 1793 1784 1792 1722 1705 1715 1697 1746 1799 1746 1777 1749 1740 1715 1702 1732 1718 1726 1694 1735 1763 1758 1781 1769 1728 1739 1699 1783 1686 1684 1730 1704 1718 1711 1717 1679 1736 1725 1748 1729 1735 1755 1757 1747 1732 1702 1706 1699 1695 1732 1731 1780 1750 1723 1729 1754 1766 1753 1746 1733 1687 1736 1765 1736 1756 1758 1722 1760 1751 1736 1727 1725 1709 1764 1644 1778 1672 1684 1785 1696 1704 1758 1704 1751 1728 1732 1743 1739 1763 1776 1742 1756 1717 1701 1735 1758 1735 1777 1782 1756 1743 1769 1737 1755 1733 1754 1729 1767 1746 1712 1738 1719 1695 1747 1771 1778 1756 1740 1743 1773 1749 1728 1730 1701 1682 1767 1714 1759 1699 1743 1743 1712 1732 1753 1699 1751 1759 1730 1755 1745 1764 1771 1744 1764 1674 1709 1752 1659 1762 1751 1743 1716 1689 1756 1758 1725 1739 1735 1761 1793 1752 1753 1747 1787 1751 1787 1729 1693 1693 1731 1774 1758 1774 1761 1737 1752 1758 1737 1759 1783 1735 1734 1759 1762 1722 1757 1763 1738 1745 1771 1761 1751 1802 1767 1778 1702 1735 1737 1747 1765 1755 1773 1749 1666 1777 1711 1727 1773 1744 1746 1738 1748 1705 1732 1738 1758 1763 1739 1766 1737 1753 1805 1809 1695 1732 1707 1683 1668 1744 1680 1759 1713 1756 1722 1726 1722 1763 1777 1734 1710 1783 1735 1729 1743 1673 1719 1714 1753 1744 1704 1702 1781 1765 1733 1782 1783 1703 1729 1793 1675 1697 1713 1673 1706 1728 1754 1747 1767 1764 1736 1735 1751 1707 1745 1764 1755 1747 1742 1759 1752 1762 1754 1762 1763 1748 1727 1711 1738 1767 1725 1737 1727 1686 1769 1740 1774 1752 1783 1750 1695 1743 1765 1757 1717 1716 1767 1684 1741 1739 1724 1742 1716 1731 1745 1692 1742 1744 1725 1758 1741 1756 1770 1679 1716 1803 1759 1766 1743 1771 1746 1752 1773 1750 1716 1776 1730 1769 1708 1745 1721 1749 1764 1743 1787 1802 1687 1740 1741 1785 1790 1779 1789 1761 1791 1763 1734 1767 1759 1775 1742 1690 1747 1703 1677 1745 1691 1726 1719 1688 1750 1749 1783 1747 1775 1752 1764 1707 1728 1757 1744 1751 1741 1692 1744 1721 1677 1709 1728 1725 1765 1773 1778 1748 1763 1746 1743 1748 1685 1726 1760 1695 1722 1764 1714 1757 1727 1745 1695 1676 1707 1717 1710 1712 1710 1750 1755 1735 1658 1647 1727 1709 1724 1712 1698 1683 1747 1766 1744 1730 1768 1730 1683 1746 1752 1771 1764 1719 1732 1766 1765 1735 1751 1771 1726 1722 1744 1658 1720 1705 1786 1772 1774 1790 1720 1755 1741 1788 1761 1768 1737 1720 1725 1709 1729 1709 1762 1751 1753 1732 1788 1799 1767 1754 1725 1723 1774 1737 1766 1733 1751 1728 1761 1751 1755 1740 1744 1765 1751 1733 1781 1780 1764 1770 1748 1712 1739 1736 1723 1735 1726 1749 1719 1734 1785 1737 1742 1770 1763 1777 1753 1734 1736 1743 1724 1741 1779 1739 1763 1733 1756 1742 1689 1750 1751 1759 1714 1754 1761 1737 1748 1770 1795 1792 1729 1714 1686 1717 1740 1725 1780 1741 1731 1734 1778 1756 1741 1727 1712 1730 1697 1710 1692 1720 1723 1729 1755 1755 1778 1739 1728 1725 1753 1762 1735 1764 1713 1697 1762 1769 1723 1750 1771 1739 1770 1771 1755 1763 1699 1769 1705 1711 1713 1731 1760 1755 1745 1749 1781 1779 1785 1696 1741 1746 1752 1766 1766 1729 1722 1802 1790 1753 1720 1764 1711 1770 1738 1724 1722 1719 1763 1708 1780 1745 1756 1784 1771 1763 1757 1742 1726 1688 1723 1743 1699 1695 1691 1751 1751 1740 1750 1772 1731 1771 1748 1770 1749 1750 1751 1738 1741 1749 1781 1761 1739 1753 1780 1782 1727 1751 1690 1670 1735 1778 1676 1767 1757 1758 1711 1718 1705 1732 1712 1693 1719 1739 1682 1702 1736 1681 1779 1747 1714 1718 1778 1758 1756 1741 1726 1782 1742 1749 1734 1762 1744 1740 1760 1710 1767 1756 1787 1762 1702 1761 1701 1724 1779 1755 1713 1736 1682 1686 1713 1739 1694 1782 1690 1716 1749 1751 1775 1788 1722 1702 1768 1684 1727 1761 1765 1781 1725 1715 1719 1739 1747 1751 1721 1797 1734 1743 1760 1753 1762 1748 1761 1738 1768 1706 1680 1755 1740 1708 1757 1749 1763 1767 1765 1757 1748 1738 1769 1754 1787 1713 1740 1766 1733 1689 1758 1759 1760 1751 1768 1775 1747 1716 1750 1740 1780 1813 1729 1741 1721 1742 1711 1701 1754 1760 1762 1715 1782 1700 1800 1771 1773 1766 1778 1709 1726 1768 1660 1763 1676 1743 1749 1668 1746 1753 1664 1671 1762 1755 1758 1714 1700 1743 1703 1735 1737 1740 1726 1733 1732 1724 1763 1772 1687 1740 1771 1761 1717 1765 1748 1718 1763 1797 1788 1778 1765 1796 1772 1726 1697 1766 1747 1753 1787 1764 1762 1786 1728 1771 1699 1721 1718 1789 1756 1693 1744 1744 1759 1767 1741 1750 1755 1724 1729 1728 1659 1732 1772 1757 1762 1716 1781 1710 1745 1743 1726 1715 1746 1729 1732 1731 1728 1749 1732 1728 1727 1742 1780 1796 1790 1738 1750 1746 1681 1722 1776 1748 1796 1800 1771 1779 1698 1719 1731 1709 1738 1715 1693 1694 1707 1714 1680 1760 1728 1736 1754 1722 1778 1693 1677 1770 1706 1768 1741 1783 1754 1720 1708 1716 1729 1733 1715 1691 1677 1752 1709 1750 1723 1740 1751 1706 1727 1777 1753 1713 1715 1732 1749 1727 1722 1740 1746 1724 1713 1759 1743 1728 1757 1755 1735 1709 1729 1784 1764 1753 1759 1791 1740 1722 1653 1680 1729 1758 1730 1675 1781 1729 1789 1796 1767 1786 1813 1774 1746 1739 1742 1725 1670 1739 1655 1733 1674 1777 1714 1716 1761 1768 1723 1710 1751 1718 1767 1753 1723 1726 1764 1724 1769 1803 1784 1762 1762 1748 1720 1730 1726 1739 1720 1730 1738 1794 1745 1698 1694 1738 1734 1712 1715 1686 1705 1674 1710 1731 1750 1674 1735 1747 1708 1736 1749 1782 1759 1740 1769 1751 1750 1753

Tree=0
num_leaves=15
num_cat=0
split_feature=26 16 2 16 5 18 10 16 16 28 26 5 2 0
split_gain=623.516 380.124 389.79 358.05 179.153 141.095 149.88 106.035 109.455 94.4307 102.498 78.1419 70.4171 66.3201
threshold=0.13607670175290895 5.7446425582262615 6005.5000000000009 7.0992729161423762 3.5000000000000004 0.63333333333333341 2016.5000000000002 5.7446425582262615 6.8546842864750372 0.13171604033550574 0.18369289340101522 2.5000000000000004 2292.5000000000005 1.0000000180025095e-35
decision_type=2 2 2 2 2 2 2 2 2 2 2 2 2 2
left_child=1 12 3 5 7 6 13 -2 9 10 -9 -7 -1 -3
right_child=4 2 -4 -5 -6 11 -8 8 -10 -11 -12 -13 -14 -15
leaf_value=-2.0782382886226571 -2.0736083120605491 -2.0729250360919553 -2.0805863875253863 -2.0781229454631411 -2.0757834346767972 -2.0657175123582809 -2.0781719200400031 -2.0690003676716193 -2.0707158151187559 -2.0550876569127063 -2.0509081387809953 -2.0719275969947955 -2.0819810187621277 -2.0658534140675116
leaf_weight=552.80714001506567 357.61722414940596 401.06974598765373 1263.4884766861796 1301.101137958467 589.82591716200113 355.63761039823294 405.12795417755842 196.47666480392218 396.31867298483849 81.461105860769749 29.793186955153942 318.32189118862152 1631.4986730292439 150.54962577670813
leaf_count=5585 3613 4052 12765 13145 5959 3593 4093 1985 4004 823 301 3216 16483 1521
internal_value=-2.07672 -2.07799 -2.07641 -2.07461 -2.07179 -2.0718 -2.07403 -2.06958 -2.06754 -2.06349 -2.06657 -2.06864 -2.08104 -2.07098
internal_weight=8031.1 6379.6 4195.3 2931.81 1651.49 1630.71 956.747 1061.67 704.05 307.731 226.27 673.96 2184.31 551.619
internal_count=81138 64453 42385 29620 16685 16475 9666 10726 7113 3109 2286 6809 22068 5573
is_linear=0
shrinkage=1


Tree=1
num_leaves=15
num_cat=2
split_feature=16 16 30 28 24 5 5 3 5 29 6 28 16 1
split_gain=493.427 513.495 266.915 221.03 148.234 117.075 112.736 96.3359 70.363 69.9973 55.8018 55.4603 44.3214 42.6637
threshold=5.7446425582262615 7.0992729161423762 11705.500000000002 0.12112027599021462 0 3.5000000000000004 2.5000000000000004 1 3.5000000000000004 6.041666666666667 4.5000000000000009 0.13171604033550574 5.9498445742776918 1.0000000180025095e-35
decision_type=2 2 2 2 9 2 2 1 2 2 2 2 2 2
left_child=8 2 3 6 -3 -5 12 -6 10 -7 -1 -9 -2 -8
right_child=1 4 -4 5 7 9 13 11 -10 -11 -12 -13 -14 -15
leaf_value=-0.0013129655212921964 0.00091150267553645773 -0.0049720520105282625 -0.0022434694079675205 0.011650330578126514 -0.0041631727046004888 0.038330062700854733 0.0001626024253374916 7.6093429332576006e-05 -0.0051125015956935329 0.0035874531710952846 -0.0054415038706889839 0.0046347581579399234 0.0065473635671784193 0.0059833764785227478
leaf_weight=1431.9020022898912 138.51208160817623 731.83169682323933 461.35504834353924 519.19989083707333 354.14775612950325 4.7498395368456832 719.62434210628271 975.484329611063 980.62556321173906 262.42444901913404 328.71018458902836 279.17657133936882 723.42222614586353 119.46041237562895
leaf_count=14497 1394 7407 4671 5215 3581 48 7260 9856 9935 2649 3328 2820 7275 1202
internal_value=-7.42162e-05 0.00153065 0.00402983 0.00519705 -0.00161403 0.00914932 0.0033642 -8.06829e-05 -0.00317413 0.00425289 -0.00208915 0.00108923 0.00565234 0.00100264
internal_weight=8030.63 5289.39 2948.75 2487.39 2340.64 786.374 1701.02 1608.81 2741.24 267.174 1760.61 1254.66 861.934 839.085
internal_count=81138 53378 29714 25043 23664 7912 17131 16257 27760 2697 17825 12676 8669 8462
cat_boundaries=0 1 2
cat_threshold=4 322
is_linear=0
shrinkage=0.009


Tree=2
num_leaves=15
num_cat=0
split_feature=26 16 2 16 5 18 10 16 16 28 26 26 2 0
split_gain=608.858 369.722 378.353 342.807 171.688 136.299 145.941 99.5658 101.903 87.3129 96.9347 76.0814 69.8008 63.5114
threshold=0.13607670175290895 5.7446425582262615 6005.5000000000009 7.0992729161423762 3.5000000000000004 0.63333333333333341 2016.5000000000002 5.7446425582262615 6.8546842864750372 0.13171604033550574 0.18369289340101522 0.10088759677616867 2292.5000000000005 1.0000000180025095e-35
decision_type=2 2 2 2 2 2 2 2 2 2 2 2 2 2
left_child=1 12 3 5 7 6 13 -2 9 10 -9 -7 -1 -3
right_child=4 2 -4 -5 -6 11 -8 8 -10 -11 -12 -13 -14 -15
leaf_value=-0.00156339507876394 0.0030223358370872664 0.0036174085018630215 -0.0039109476976194697 -0.0014642289302238948 0.00086509054415576992 0.0038988247319407666 -0.0015590771986721942 0.0074370704286355884 0.005827053003471255 0.020733480255681155 0.024841184917971607 0.01017125155788013 -0.0052975298834750774 0.010500268537462495
leaf_weight=550.95838093757629 357.88119987398386 403.67997182905674 1257.8748813793063 1298.8751366734505 589.48845158517361 258.28084941208363 406.28219596296549 198.5828203111887 398.56127544492483 83.528446234762669 30.524438016116619 422.59767848998308 1620.5511448681355 152.51056852936745
leaf_count=5585 3613 4052 12765 13145 5959 2584 4093 1985 4004 823 301 4225 16483 1521
internal_value=-7.36345e-05 -0.00133914 0.0002177 0.00198593 0.00478232 0.00471827 0.00252397 0.00693358 0.0088884 0.0127593 0.00980495 0.00780604 -0.00435436 0.00552245
internal_weight=8030.18 6371.61 4200.1 2942.23 1658.57 1643.35 962.473 1069.08 711.197 312.636 229.107 680.879 2171.51 556.191
internal_count=81138 64453 42385 29620 16685 16475 9666 10726 7113 3109 2286 6809 22068 5573
is_linear=0
shrinkage=0.009


Tree=3
num_leaves=15
num_cat=0
split_feature=26 16 2 16 5 5 16 28 2 16 28 2 16 26
split_gain=596.437 364.656 372.07 335.305 166.977 120.498 96.351 98.6957 93.3385 72.9352 72.4669 69.1514 65.1185 61.6547
threshold=0.13607670175290895 5.7446425582262615 6005.5000000000009 7.0992729161423762 3.5000000000000004 2.5000000000000004 5.7446425582262615 0.13171604033550574 3309.5000000000005 5.9498445742776918 0.12112027599021462 2292.5000000000005 6.4278549933323914 0.11675191968243116
decision_type=2 2 2 2 2 2 2 2 2 2 2 2 2 2
left_child=1 11 3 5 6 9 -2 12 -9 -3 -7 -1 -8 -12
right_child=4 2 -4 -5 -6 10 7 8 -10 -11 13 -13 -14 -15
leaf_value=-0.0015512214224207782 0.0029880887847951155 0.00097587258201116693 -0.003887626861942562 -0.0014527128567755126 0.00085672722490771544 0.00031973635015090988 0.011751133773762475 0.020905910356411442 0.0081593316627287249 0.0080654003266637953 0.0032891280212963953 -0.0052716748552670816 0.0046352723663061262 0.01413373769223528
leaf_weight=550.28842819482088 358.72234419733286 143.26249444484711 1254.0497333407402 1297.3967103213072 589.88497760146856 557.62655472755432 149.06213252991438 92.038405075669289 101.14057655632496 740.60541832447052 146.01672153174877 1613.8734002411366 373.83633907884359 61.843512572348118
leaf_count=5585 3613 1433 12765 13145 5959 5593 1476 906 998 7374 1458 16483 3733 617
internal_value=-7.30043e-05 -0.00132854 0.000215632 0.00196498 0.00472197 0.00465875 0.00683469 0.00874841 0.0142866 0.00692671 0.00202775 -0.00432994 0.00668285 0.00656419
internal_weight=8029.65 6364.96 4200.8 2946.75 1664.68 1649.35 1074.8 716.077 193.179 883.868 765.487 2164.16 522.898 207.86
internal_count=81138 64453 42385 29620 16685 16475 10726 7113 1904 8807 7668 22068 5209 2075
is_linear=0
shrinkage=0.009


Tree=4
num_leaves=15
num_cat=0
split_feature=26 18 2 5 2 29 28 6 26 29 18 28 5 29
split_gain=584.29 360.355 268.54 162.418 148.99 177.982 129.355 122.13 89.626 142.061 116.558 106.849 68.3895 64.7231
threshold=0.13607670175290895 0.63333333333333341 5231.5000000000009 3.5000000000000004 6192.5000000000009 7.8750000000000009 0.13171604033550574 2.5000000000000004 0.15488661175526255 7.8750000000000009 0.55000000000000016 0.12112027599021462 2.5000000000000004 7.8750000000000009
decision_type=2 2 2 2 2 2 2 2 2 2 2 2 2 2
left_child=1 4 6 8 5 -1 -3 12 -2 10 -10 -12 -7 -4
right_child=3 2 13 -5 -6 7 -8 -9 9 -11 11 -13 -14 -15
leaf_value=-0.0043703594324682382 0.0048168891528296322 0.0029381688539183806 0.0015189700498061398 0.00084845055932660375 -0.0055807682176247072 0.0042843322992786861 0.010805043131164475 -0.0026852621283181147 0.013096180677132583 0.0071079748334428013 0.02095193631066072 0.058631598977259052 -0.00034092980256118582 -0.0042467754286968761
leaf_weight=1270.777504555881 703.96444569528103 1163.2700231447816 219.67706467956305 590.27783504873514 1164.5515456944704 535.56421124190092 199.70823531597853 768.65988519787788 63.81586054712534 284.58586392551661 17.584029182791713 10.509843669831751 494.76668015867472 541.36421581357718
leaf_count=12899 6993 11686 2239 5959 11915 5393 1995 7808 634 2821 175 103 5002 5516
internal_value=-7.23556e-05 -0.001318 0.00170446 0.00466262 -0.00283626 -0.00179202 0.00409816 2.44162e-05 0.00673778 0.0103033 0.0200809 0.035525 0.00205472 -0.00257067
internal_weight=8029.08 6358.34 2124.02 1670.74 4234.32 3069.77 1362.98 1798.99 1080.46 376.496 91.9097 28.0939 1030.33 761.041
internal_count=81138 64453 21436 16685 43017 31102 13681 18203 10726 3733 912 278 10395 7755
is_linear=0
shrinkage=0.009


Tree=5
num_leaves=15
num_cat=0
split_feature=2 18 16 10 16 16 28 16 0 0 5 6 2 2
split_gain=491.13 457.636 276.245 233.853 245.456 149.56 127.601 86.1648 76.4483 75.5925 89.0938 73.6878 59.0174 57.2657
threshold=6192.5000000000009 0.63333333333333341 7.1136814478742769 2016.5000000000002 5.7717498456674869 7.0717889755819305 0.13171604033550574 6.5954460983260033 1.0000000180025095e-35 1.0000000180025095e-35 2.5000000000000004 2.5000000000000004 3858.5000000000005 2582.5000000000005
decision_type=2 2 2 2 2 2 2 2 2 2 2 2 2 2
left_child=1 3 6 4 11 8 9 -8 -6 10 -3 13 -4 -1
right_child=-2 2 12 -5 5 -7 7 -9 -10 -11 -12 -13 -14 -15
leaf_value=0.0057196053891323219 -0.0036330528646759774 0.008066674658141636 0.0027285277365465526 -0.0030025655903464436 0.0050791665950264782 0.0002985324728527884 0.0099264173745424195 0.022736151512127968 0.011764888293793744 0.011000468366262926 0.0013979681821612534 -0.0031936647129068422 -0.002343327642649831 -0.0013720422832914894
leaf_weight=162.40343941003084 2168.3837209567428 351.00602067261934 596.19701102375984 1625.4033205360174 523.48988785594702 459.0716502815485 119.51882222294807 70.199054688215256 193.64329572767019 230.96058148890734 308.82477592676878 745.09713455289602 268.19095376878977 209.97892243415117
leaf_count=1643 22155 3468 6006 16479 5204 4629 1174 685 1907 2293 3091 7596 2707 2139
internal_value=2.5421e-05 0.00137982 0.00494907 -0.000389245 0.00145879 0.00433038 0.00798403 0.0147231 0.00689841 0.00653716 0.0049598 -0.00155577 0.0011444 0.00169731
internal_weight=8032.37 5863.98 1944.9 3919.09 2293.68 1176.2 1080.51 189.718 717.133 890.791 659.831 1117.48 864.388 372.382
internal_count=81176 59021 19424 39597 23118 11740 10711 1859 7111 8852 6559 11378 8713 3782
is_linear=0
shrinkage=0.009


Tree=6
num_leaves=15
num_cat=0
split_feature=26 16 16 2 27 27 2 2 16 28 30 16 16 29
split_gain=516.951 355.755 391.666 306.759 175.225 149.242 103.318 77.1073 74.5705 71.1617 75.8852 82.2949 81.116 68.2911
threshold=0.1379044098070091 5.7446425582262615 7.0992729161423762 6427.5000000000009 0.10055400351760012 0.12321485370328887 4069.5000000000005 3228.5000000000005 5.9498445742776918 0.13171604033550574 6344.5000000000009 5.8295132451851144 7.0701835524365846 7.6250000000000009
decision_type=2 2 2 2 2 2 2 2 2 2 2 2 2 2
left_child=1 7 3 5 -2 -3 -4 -1 -7 -6 11 -11 -13 -12
right_child=4 2 6 -5 9 8 -8 -9 -10 10 13 12 -14 -15
leaf_value=-0.0020065732564307198 0.00082066223427240334 0.0019702133603410423 -0.00063639791665497222 -0.0025116944403145436 0.0059263368694289081 0.0013759081688507779 -0.0048171578977987536 -0.0053915797027818853 0.0082210575177029 0.0058199661762344803 0.0203610447392432 0.026619184381352586 0.010572687146892397 -0.0010823293129130014
leaf_weight=973.63277323544025 504.65558144450188 860.86493296921253 1051.6875837296247 639.93042816221714 635.58219540864229 156.91946522891521 887.80316057056189 1271.1200284063816 818.7712472230196 54.08020206540823 15.256907261908053 61.48767264932394 48.099093087017536 52.531198419630527
leaf_count=9938 5095 8592 10635 6563 6291 1561 9088 13094 8057 540 149 584 471 518
internal_value=2.5152e-05 -0.00100986 0.000471285 0.00284495 0.00505729 0.00471635 -0.00255493 -0.00392754 0.00712964 0.00751244 0.0118246 0.0151577 0.0196743 0.00363419
internal_weight=8032.42 6660.73 4415.98 2476.49 1371.69 1836.56 1939.49 2244.75 975.691 867.037 231.455 163.667 109.587 67.7881
internal_count=81176 67528 44496 24773 13648 18210 19723 23032 9618 8553 2262 1595 1055 667
is_linear=0
shrinkage=0.009


Tree=7
num_leaves=15
num_cat=1
split_feature=26 18 2 27 10 2 6 28 0 29 27 3 2 25
split_gain=506.137 351.545 289.187 170.317 150.332 193.267 139.722 131.389 104.725 78.1662 76.91 69.0051 81.6837 67.8913
threshold=0.1379044098070091 0.63333333333333341 5231.5000000000009 0.10055400351760012 2016.5000000000002 7222.5000000000009 3.5000000000000004 0.11598775392405726 1.0000000180025095e-35 7.8750000000000009 0.12321485370328887 0 6192.5000000000009 1.1000000000000003
decision_type=2 2 2 2 2 2 2 2 2 2 2 1 2 2
left_child=1 4 7 -2 5 6 8 -3 -1 -4 -10 12 13 -5
right_child=3 2 9 11 -6 -7 -8 -9 10 -11 -12 -13 -14 -15
leaf_value=6.1400585848281615e-06 0.00081275711772896091 0.0023248180961523758 0.0018867297874631741 0.014427604434188274 -0.004396359147893489 -0.0057779525749706954 -0.004682058111567293 0.0080549548839262061 0.001046216834694619 -0.0043856305358287188 0.0086555401714560314 0.0047922710436315505 0.0020308280417032937 0.0020328075531447663
leaf_weight=1176.54230607301 504.97746854275465 966.25519497692585 225.76781925559044 262.0811755284667 1887.1928185299039 546.29808481782675 374.97484620660543 493.04861288517714 202.87704895436764 546.02580489218235 236.44004776328802 491.94199949502945 74.509216196835041 43.502018630504608
leaf_count=11881 5095 9643 2308 2545 19315 5648 3844 4876 2045 5604 2364 4846 734 428
internal_value=2.48644e-05 -0.00100165 0.00190881 0.0049925 -0.00247138 -0.00103586 0.000261105 0.00426742 0.001414 -0.00253915 0.00516307 0.00740221 0.0103559 0.0126938
internal_weight=8032.43 6655.42 2231.1 1377.01 4424.33 2537.13 1990.83 1459.3 1615.86 771.794 439.317 872.034 380.092 305.583
internal_count=81176 67528 22431 13648 45097 25782 20134 14519 16290 7912 4409 8553 3707 2973
cat_boundaries=0 1
cat_threshold=389
is_linear=0
shrinkage=0.009


Tree=8
num_leaves=15
num_cat=1
split_feature=2 18 16 10 16 16 28 5 16 0 5 6 0 3
split_gain=470.708 435.509 262.278 226.152 234.745 157.985 117.69 86.0903 79.8061 72.4835 84.3788 65.5406 64.5089 63.3052
threshold=6192.5000000000009 0.63333333333333341 7.1136814478742769 2016.5000000000002 5.8452494861287336 7.0717889755819305 0.13171604033550574 2.5000000000000004 6.5954460983260033 1.0000000180025095e-35 2.5000000000000004 2.5000000000000004 1.0000000180025095e-35 0
decision_type=2 2 2 2 2 2 2 2 2 2 2 2 2 1
left_child=1 3 6 4 11 7 9 12 -8 10 -3 -1 -6 -4
right_child=-2 2 13 -5 5 -7 8 -9 -10 -11 -12 -13 -14 -15
leaf_value=0.0015399601951483241 -0.0035749835500943428 0.0078029404696990058 0.0040912969631100417 -0.0029662013427554129 0.0077256577752029725 0.00027682331489346524 0.0095362445376039953 0.0036766132266947008 0.021715444534643722 0.010684913247568234 0.0013401432299564487 -0.0029328425919252794 0.016413375054821343 -0.00083864796631427597
leaf_weight=401.91316165775061 2152.4870939031243 355.75172063708305 335.93508915603161 1618.460716150701 253.79289417713881 459.90423977375031 121.70892561227083 314.17926337569952 72.339954264461994 234.21905791014433 310.19946493953466 769.87418491393328 100.00985518842936 531.61914664506912
leaf_count=4067 22155 3468 3355 16479 2478 4629 1174 3111 685 2293 3091 7874 959 5358
internal_value=2.46729e-05 0.00134399 0.00480576 -0.000387075 0.00142419 0.00435684 0.00773712 0.00715199 0.0141318 0.00634722 0.00480674 -0.00139103 0.0102108 0.0010977
internal_weight=8032.39 5879.91 1961.77 3918.13 2299.67 1127.89 1094.22 667.982 194.049 900.17 665.951 1171.79 353.803 867.554
internal_count=81176 59021 19424 39597 23118 11177 10711 6548 1859 8852 6559 11941 3437 8713
cat_boundaries=0 1
cat_threshold=141
is_linear=0
shrinkage=0.009


Tree=9
num_leaves=15
num_cat=0
split_feature=26 16 16 26 27 4 4 0 18 27 28 30 16 16
split_gain=494.841 344.805 380.278 212.836 164.256 132.696 99.3444 85.1872 81.0328 66.9385 65.9697 69.6905 75.3966 73.7955
threshold=0.1379044098070091 5.7446425582262615 7.0992729161423762 0.076230738159956415 0.10055400351760012 1.5000000000000002 2.5000000000000004 1.0000000180025095e-35 0.45000000000000007 0.12321485370328887 0.13171604033550574 6344.5000000000009 5.8295132451851144 7.0701835524365846
decision_type=2 2 2 2 2 2 2 2 2 2 2 2 2 2
left_child=1 -1 3 -3 -2 8 7 -4 -5 -7 -6 12 -12 -14
right_child=4 2 6 5 10 9 -8 -9 -10 -11 11 -13 13 -15
leaf_value=-0.0038783213278608219 0.00081404264123684201 -0.0029459243494552576 -0.0024760553145668635 0.0032388550944981572 0.0057526779061700751 0.00096042848427038338 -0.0053634232018037534 0.0027526739726034728 0.010010415203060405 0.0049951964468878387 0.0056090692281378076 0.0035372593263311549 0.02524497049485902 0.01012790186055601
leaf_weight=2230.2303923591971 504.92227091640234 431.022136695683 927.73079442232847 234.42515497654676 641.90788971632719 894.35362076759338 660.92036110162735 345.29372371733189 388.06563653796911 537.64682117849588 54.741858914494514 68.217498168349266 63.764982357621193 49.079020202159882
leaf_count=23032 5095 4417 9423 2322 6291 8975 6797 3503 3772 5287 540 667 584 471
internal_value=2.44718e-05 -0.000993028 0.000461022 0.00279144 0.0049243 0.00399958 -0.00252938 -0.00105065 0.00747568 0.00248182 0.0072782 0.0113886 0.0145269 0.0187646
internal_weight=8032.32 6649.69 4419.46 2485.51 1382.63 2054.49 1933.94 1273.02 622.491 1432 877.711 235.803 167.586 112.844
internal_count=81176 67528 44496 24773 13648 20356 19723 12926 6094 14262 8553 2262 1595 1055
is_linear=0
shrinkage=0.009


Tree=10
num_leaves=15
num_cat=0
split_feature=26 18 2 10 2 16 5 16 16 26 10 18 16 16
split_gain=500.602 349.446 245.456 149.042 171.152 187.017 145.517 139.106 127.502 90.882 162.033 127.878 80.6001 80.4789
threshold=0.13350949060320835 0.63333333333333341 5231.5000000000009 2016.5000000000002 7222.5000000000009 5.7717498456674869 3.5000000000000004 7.0992729161423762 7.0717889755819305 0.16662586976723104 2016.5000000000002 0.55000000000000016 5.933404702364764 5.7446425582262615
decision_type=2 2 2 2 2 2 2 2 2 2 2 2 2 2
left_child=1 3 7 4 5 -1 9 12 -7 13 -11 -12 -3 -2
right_child=6 2 -4 -5 -6 8 -8 -9 -10 10 11 -13 -14 -15
leaf_value=-0.0028808211312477132 0.00022973099230702085 0.0012169784324860603 -0.0023578795970648405 -0.0046690676470647636 -0.005724029248140923 0.0053587266118054824 0.00069557204526805437 0.00080847533325161826 -0.0013363454438075559 0.0065187174237723291 0.013555491919637792 0.038294653312283752 0.0081578191411881846 0.0065008905753183195
leaf_weight=912.85931442677975 248.82812898606062 179.73206800222397 753.30808124691248 1782.1492881476879 535.04159589111805 600.24806206673384 594.38949640095234 616.20358277857304 370.90160608291626 263.28362711519003 60.212447479367256 24.7686932310462 594.16365246474743 515.24593490362167
leaf_count=9421 2476 1791 7765 18392 5586 5884 5996 6214 3767 2548 585 233 5729 4979
internal_value=-1.77692e-05 -0.00118284 0.00177166 -0.00269235 -0.00123222 3.88737e-05 0.00430783 0.00401598 0.0027926 0.00622975 0.0100608 0.0209083 0.00655785 0.0044707
internal_weight=8051.34 6344.61 2143.41 4201.2 2419.05 1884.01 1706.73 1390.1 971.15 1112.34 348.265 84.9811 773.896 764.074
internal_count=81366 64549 21499 43050 24658 19072 16817 13734 9651 10821 3366 818 7520 7455
is_linear=0
shrinkage=0.009


Tree=11
num_leaves=15
num_cat=0
split_feature=2 18 10 6 28 5 5 2 2 28 28 2 6 2
split_gain=452.26 443.583 231.664 164.913 149.435 125.391 107.903 74.3343 66.1101 72.1565 64.2097 62.0502 57.0188 49.5192
threshold=6130.0000000000009 0.63333333333333341 2016.5000000000002 2.5000000000000004 0.10787656020783647 2.5000000000000004 3.5000000000000004 2016.5000000000002 3765.5000000000005 0.13171604033550574 0.13171604033550574 12937.500000000002 4.5000000000000009 5559.5000000000009
decision_type=2 2 2 2 2 2 2 2 2 2 2 2 2 2
left_child=1 2 3 5 -3 7 8 -1 9 -6 -4 -2 -5 -12
right_child=11 4 10 12 6 -7 -8 -9 -10 -11 13 -13 -14 -15
leaf_value=0.010044894316381057 -0.0024638792079364614 0.0022236121926264515 -0.0039010638487802199 -0.00024789022090311661 0.0083051636340042388 0.00048653194163677659 0.0024781537931953062 0.0038387788837472609 0.0048151336347059233 0.015597682385444725 -0.00013452893643913356 -0.0057334627329366514 -0.005395493451762606 0.014537945949462824
leaf_weight=244.82845782488585 1454.5107798501849 976.72200108319521 1345.5300138518214 738.67084877192974 326.60471753031015 636.08569637686014 287.04240167886019 455.01028046756983 215.92115671932697 174.52183938026428 237.80064611881971 707.93425017595291 229.75050333142281 20.017735160887241
leaf_count=2409 15002 9664 13789 7468 3185 6382 2846 4492 2100 1654 2410 7390 2371 204
internal_value=-1.76318e-05 0.0012739 -0.000482712 0.00134244 0.0047437 0.0033943 0.00718568 0.00602388 0.00905699 0.0108654 -0.00311137 -0.00353864 -0.00147884 0.000974983
internal_weight=8050.95 5888.51 3907.69 2304.35 1980.81 1335.92 1004.09 699.839 717.048 501.127 1603.35 2162.45 968.421 257.818
internal_count=81366 58974 39525 23122 19449 13283 9785 6901 6939 4839 16403 22392 9839 2614
is_linear=0
shrinkage=0.009


Tree=12
num_leaves=15
num_cat=0
split_feature=26 18 2 10 2 5 15 28 26 10 18 28 29 2
split_gain=488.682 339.114 234.837 145.631 166.963 139.958 113.475 96.7735 88.101 155.502 116.637 72.9793 72.2089 69.5719
threshold=0.13350949060320835 0.63333333333333341 5231.5000000000009 2016.5000000000002 7222.5000000000009 3.5000000000000004 1.9000000000000001 0.10787656020783647 0.16662586976723104 2016.5000000000002 0.55000000000000016 0.11598775392405726 7.8750000000000009 6310.5000000000009
decision_type=2 2 2 2 2 2 2 2 2 2 2 2 2 2
left_child=1 3 7 4 6 8 -1 -3 -2 13 -11 -12 -4 -10
right_child=5 2 12 -5 -6 -7 -8 -9 9 10 11 -13 -14 -15
leaf_value=-0.0023899204249150214 0.0043910901388678784 0.00169144014484892 0.002004753915446811 -0.0046263311922198824 -0.0056798450753030826 0.00069853286711098965 0.0020445625411794721 0.0064584304406332628 0.0090195426010718349 0.013346573656858526 0.023029790094497161 0.055927291277988192 -0.0041174907936330149 -0.0016261067957476769
leaf_weight=855.18952339142561 767.82681955397129 749.40258365869522 218.51292095333338 1771.0489868894219 530.93999215960503 594.24378037452698 1030.4198907017708 649.91410710662603 200.67895547300577 60.714329034090042 15.34368619322777 10.234582349658011 531.90102898329496 64.267874643206596
leaf_count=8792 7455 7408 2247 18392 5586 5996 10280 6326 1917 585 143 90 5518 631
internal_value=-1.75027e-05 -0.00117156 0.00173156 -0.00266405 -0.00122208 0.00424579 2.85773e-05 0.00391221 0.00612118 0.00987529 0.0204105 0.03671 -0.00232273 0.00640364
internal_weight=8050.64 6337.33 2149.73 4187.6 2416.55 1713.31 1885.61 1399.32 1119.07 351.239 86.2926 25.5783 750.414 264.947
internal_count=81366 64549 21499 43050 24658 16817 19072 13734 10821 3366 818 233 7765 2548
is_linear=0
shrinkage=0.009


Tree=13
num_leaves=15
num_cat=0
split_feature=26 16 16 2 5 2 26 10 5 16 2 2 28 16
split_gain=478.842 338.729 336.874 244.933 136.293 110.086 85.1917 148.602 83.2872 77.0014 67.6278 62.2095 60.1917 66.0673
threshold=0.13350949060320835 5.7446425582262615 7.0992729161423762 6974.5000000000009 3.5000000000000004 4034.5000000000005 0.16662586976723104 2016.5000000000002 2.5000000000000004 5.7446425582262615 6310.5000000000009 2292.5000000000005 0.13171604033550574 7.0701835524365846
decision_type=2 2 2 2 2 2 2 2 2 2 2 2 2 2
left_child=1 11 3 8 6 -4 9 10 -3 -2 -8 -1 -11 -14
right_child=4 2 5 -5 -6 -7 7 -9 -10 12 -12 -13 13 -15
leaf_value=-0.0014658981378783094 0.00019007014567499819 0.0059755821043116367 -0.0005061205708073108 -0.0026737517029109086 0.00069187016097219968 -0.0049362191636286032 0.0088770096928535765 0.019923826133912824 0.0021059805980162679 0.0044787711301778211 -0.0016135193425091273 -0.0050167152755249403 0.017420182873558288 0.0044112459991442615
leaf_weight=547.18276961147785 249.65973621606827 956.70129117369652 974.64645309001207 556.49125507473946 594.56631431728601 859.40869029611349 202.06131934374571 87.609862878918648 869.7307348921895 388.14093785732985 64.187464565038681 1567.2477225884795 72.346639566123486 60.266730792820454
leaf_count=5635 2476 9260 9851 5812 5996 8928 1917 818 8631 3746 631 16432 658 575
internal_value=-1.73544e-05 -0.00116215 0.00030994 0.00254345 0.00419413 -0.00258706 0.00603805 0.00971406 0.00413806 0.0043369 0.0063145 -0.00410219 0.00630727 0.0115838
internal_weight=8050.25 6331.41 4216.98 2382.92 1718.84 1834.06 1124.27 353.859 1826.43 770.414 266.249 2114.43 520.754 132.613
internal_count=81366 64549 42482 23703 16817 18779 10821 3366 17891 7455 2548 22067 4979 1233
is_linear=0
shrinkage=0.009


Tree=14
num_leaves=15
num_cat=1
split_feature=26 16 16 2 5 2 4 16 16 28 26 18 3 2
split_gain=469.232 333.959 330.781 239.813 132.746 108.798 99.5829 83.0689 93.0657 71.9698 77.955 64.2136 62.8067 61.6053
threshold=0.13350949060320835 5.7446425582262615 7.0992729161423762 6974.5000000000009 3.5000000000000004 4034.5000000000005 1.5000000000000002 5.7446425582262615 6.8563894097604541 0.13171604033550574 0.18369289340101522 0.87500000000000011 0 2292.5000000000005
decision_type=2 2 2 2 2 2 2 2 2 2 2 2 1 2
left_child=1 13 3 6 7 11 12 -2 9 10 -9 -4 -3 -1
right_child=4 2 5 -5 -6 -7 -8 8 -10 -11 -12 -13 -14 -15
leaf_value=-0.0014543811352944974 0.0024451556055865571 0.0033481729890516895 -0.0028762330972245853 -0.0026552890498392351 0.0006852743523026154 -0.0049108643242609853 0.0025884668741714056 0.0064776547404122638 0.0047392687035144607 0.017877810949037079 0.021340417335058325 0.0017417520955853173 0.0096314759557034439 -0.0049913197823725662
leaf_weight=546.55580461770296 373.11314460635185 273.33581423014402 475.25313196331263 555.32337202131748 594.88589136302471 856.08677218854427 1219.4738304242492 216.59486266225576 410.56169798225164 95.336494289338589 33.795183517038822 499.00996485352516 339.4212129637599 1561.0732163786888
leaf_count=5635 3668 2649 4861 5812 5996 8928 11982 2057 3935 852 309 4990 3260 16432
internal_value=-1.72334e-05 -0.00115284 0.000306993 0.00251561 0.00414335 -0.00256905 0.00408781 0.00595662 0.00767654 0.0111362 0.00852733 -0.000501764 0.00705613 -0.00407849
internal_weight=8049.82 6325.53 4217.9 2387.55 1724.29 1830.35 1832.23 1129.4 756.288 345.727 250.39 974.263 612.757 2107.63
internal_count=81366 64549 42482 23703 16817 18779 17891 10821 7153 3218 2366 9851 5909 22067
cat_boundaries=0 1
cat_threshold=88
is_linear=0
shrinkage=0.009


Tree=15
num_leaves=15
num_cat=0
split_feature=26 18 2 26 2 29 29 5 15 28 0 29 2 5
split_gain=475.709 336.623 232.297 155.918 142.407 178.599 129.485 122.289 113.417 99.2828 83.775 73.6088 70.4498 56.7024
threshold=0.13607670175290895 0.63333333333333341 5231.5000000000009 0.21811023622047243 6192.5000000000009 7.8750000000000009 7.8750000000000009 3.5000000000000004 1.9000000000000001 0.11598775392405726 1.0000000180025095e-35 7.8750000000000009 6427.5000000000009 2.5000000000000004
decision_type=2 2 2 2 2 2 2 2 2 2 2 2 2 2
left_child=1 4 9 7 5 -1 -5 -2 -7 13 -10 -4 -8 -3
right_child=3 2 11 6 -6 8 12 -9 10 -11 -12 -13 -14 -15
leaf_value=-0.0042586166220012177 0.0050026927583695802 0.0042720458896580949 0.0020731696186120098 0.026597071670554844 -0.0053689248163104018 -0.0022989266720919565 0.011917793301516343 -0.00042958109359975501 0.00058321569597434553 0.0074005373803590823 0.0064287204316667143 -0.0040885945056863852 5.0155944854773215e-05 -0.00013137679522356915
leaf_weight=1233.5973695963621 975.18664300441742 513.00480651110411 220.3308290168643 37.296960480511189 1129.8648670241237 815.90450324118137 126.79134520888329 507.35686024278402 711.99774634093046 451.3326765820384 277.57937056571245 533.26059562712908 61.772835999727249 432.80540267378092
leaf_count=12825 9322 5004 2274 350 11978 8429 1210 5110 7103 4340 2733 5575 616 4298
internal_value=-4.57001e-06 -0.00114478 0.00174457 0.00420782 -0.00263755 -0.00161897 0.0111878 0.00313768 0.000179718 0.00391913 0.00223248 -0.00227508 0.0080798 0.00224771
internal_weight=8028.08 6319.68 2150.73 1708.4 4168.94 3039.08 225.861 1482.54 1805.48 1397.14 989.577 753.591 188.564 945.81
internal_count=81167 64559 21491 16608 43068 31090 2176 14432 18265 13642 9836 7849 1826 9302
is_linear=0
shrinkage=0.009


Tree=16
num_leaves=15
num_cat=0
split_feature=26 16 16 2 26 29 27 27 2 18 29 17 2 16
split_gain=466.114 338.534 367.376 265.389 150.998 122.738 119.398 107.835 94.1142 72.274 83.79 70.902 68.1072 66.9897
threshold=0.13607670175290895 5.7446425582262615 7.0992729161423762 6974.5000000000009 0.21811023622047243 7.8750000000000009 0.10055400351760012 0.12321485370328887 4034.5000000000005 0.63333333333333341 7.8750000000000009 64.816666666666677 6427.5000000000009 5.7446425582262615
decision_type=2 2 2 2 2 2 2 2 2 2 2 2 2 2
left_child=1 -1 3 7 6 -6 -2 -3 -4 10 -9 -11 -7 -8
right_child=4 2 8 -5 5 12 13 9 -10 11 -12 -13 -14 -15
leaf_value=-0.0040855824828541594 -0.0004258583694321248 0.0020139178162745914 -0.00077193913723973967 -0.0027864619612967432 0.025834576208825458 0.01170369926758137 0.0015133470101661376 3.2265498115546027e-05 -0.0048779000105640818 0.016418447904124805 0.0071913596467244071 0.0072402189289061981 4.9703288288350875e-05 0.0065788164528781242
leaf_weight=2102.1821422800422 507.18766426295042 872.92198456078768 972.42135624587536 553.50501957535744 38.05164535343647 127.9452702626586 318.78671187907457 227.64588572084904 855.28763683140278 90.384371377527714 325.14811642467976 314.36019680649042 61.775233134627342 660.12246463447809
leaf_count=22131 5110 8630 9824 5823 350 1210 3124 2300 8967 845 3101 2938 616 6198
internal_value=-4.5629e-06 -0.00113558 0.000334793 0.00266406 0.00415664 0.0109944 0.0031019 0.0043172 -0.00269843 0.00640711 0.00425999 0.00931561 0.00795846 0.00493874
internal_weight=8027.73 6313.86 4211.67 2383.97 1713.87 227.772 1486.1 1830.46 1827.71 957.539 552.794 404.745 189.721 978.909
internal_count=81167 64559 42428 23637 16608 2176 14432 17814 18791 9184 5401 3783 1826 9322
is_linear=0
shrinkage=0.009


Tree=17
num_leaves=15
num_cat=0
split_feature=26 16 16 2 26 27 29 27 2 18 29 17 2 30
split_gain=456.739 333.752 360.74 259.822 146.273 116.592 116.469 104.884 93.0379 69.89 81.5564 67.8558 66.7987 96.9846
threshold=0.13607670175290895 5.7446425582262615 7.0992729161423762 6974.5000000000009 0.21811023622047243 0.10055400351760012 7.8750000000000009 0.12321485370328887 4034.5000000000005 0.63333333333333341 7.8750000000000009 64.816666666666677 2355.5000000000005 2263.5000000000005
decision_type=2 2 2 2 2 2 2 2 2 2 2 2 2 2
left_child=1 -1 3 7 5 -2 -6 -3 -4 10 -9 -11 13 -8
right_child=4 2 8 -5 6 -7 12 9 -10 11 -12 -13 -14 -15
leaf_value=-0.0040619237925319952 -0.00042216652473531523 0.00199268392543046 -0.00076545361840353913 -0.0027674809204126711 0.025112060090035752 0.0048760250239326883 0.009039284865141519 3.1974299918097575e-05 -0.0048526739875629533 0.016069852441949219 0.0070875954868870987 0.007135781328817265 0.0056354475284473432 0.047406356726856995
leaf_weight=2095.4276461079717 507.01996964216232 874.27864188700914 971.83815674483776 552.29177583754063 38.793585523962975 982.57365566492081 18.132609993219379 227.65159097313881 852.01149915158749 91.510926924645901 326.93251012265682 316.08404759317636 164.6958474740386 8.0340599417686445
leaf_count=22131 5110 8630 9824 5823 350 9322 168 2300 8967 845 3101 2938 1583 75
internal_value=-4.53756e-06 -0.00112643 0.00033166 0.00263482 0.00410636 0.00306671 0.0108063 0.00426445 -0.00267989 0.00631891 0.00420808 0.00916713 0.00783983 0.0212976
internal_weight=8027.28 6308.03 4212.6 2388.75 1719.25 1489.59 229.656 1836.46 1823.85 962.179 554.584 407.595 190.863 26.1667
internal_count=81167 64559 42428 23637 16608 14432 2176 17814 18791 9184 5401 3783 1826 243
is_linear=0
shrinkage=0.009


Tree=18
num_leaves=15
num_cat=0
split_feature=26 16 16 2 26 5 29 5 2 18 29 2 17 16
split_gain=447.572 329.03 354.229 254.385 141.761 113.855 110.627 102.03 91.971 67.6028 79.393 65.0133 64.9789 64.9084
threshold=0.13607670175290895 5.7446425582262615 7.0992729161423762 6974.5000000000009 0.21811023622047243 3.5000000000000004 7.8750000000000009 2.5000000000000004 4034.5000000000005 0.63333333333333341 7.8750000000000009 6427.5000000000009 64.816666666666677 5.4528420594425118
decision_type=2 2 2 2 2 2 2 2 2 2 2 2 2 2
left_child=1 -1 3 7 5 13 -6 9 -4 10 -3 -8 -11 -2
right_child=4 2 8 -5 6 -7 11 -9 -10 12 -12 -13 -14 -15
leaf_value=-0.0040383392297737124 0.00060683572039920092 3.1685922995343864e-05 -0.00075901866071552112 -0.0027485917653894999 0.024426408178548319 -0.00041850559918931677 0.011341704877175673 0.0019717080281824364 -0.0048275037874460289 0.015733698160578416 0.006985957277167533 0 0.0070334850876331515 0.0060957744181490536
leaf_weight=2088.7271908447146 231.93878876417875 227.65725160390139 971.26009920984507 551.08863519877195 39.523021809756756 506.85376783460379 129.9391470476985 875.62235832959414 848.76094422489405 92.621921710669994 328.69722979515791 62.047350041568279 317.78877521306276 754.28035568445921
leaf_count=22131 2264 2300 9824 5823 350 5110 1210 8630 8967 845 3101 616 2938 7058
internal_value=-4.50626e-06 -0.00111736 0.00032856 0.00260597 0.00405686 0.00303192 0.010624 0.00421255 -0.00266145 0.00623241 0.004157 0.00772451 0.00902224 0.0048142
internal_weight=8026.81 6302.22 4213.5 2393.48 1724.58 1493.07 231.51 1842.39 1820.02 966.765 556.354 191.986 410.411 986.219
internal_count=81167 64559 42428 23637 16608 14432 2176 17814 18791 9184 5401 1826 3783 9322
is_linear=0
shrinkage=0.009


Tree=19
num_leaves=15
num_cat=0
split_feature=26 16 16 2 26 5 29 5 2 18 29 16 28 2
split_gain=438.604 324.368 347.841 249.076 137.402 111.196 105.193 99.268 90.9134 65.4077 77.2972 63.4283 69.3577 62.907
threshold=0.13607670175290895 5.7446425582262615 7.0992729161423762 6974.5000000000009 0.21811023622047243 3.5000000000000004 7.8750000000000009 2.5000000000000004 4034.5000000000005 0.63333333333333341 7.8750000000000009 5.7446425582262615 0.13171604033550574 6427.5000000000009
decision_type=2 2 2 2 2 2 2 2 2 2 2 2 2 2
left_child=1 -1 3 7 5 11 -6 9 -4 10 -3 -2 -13 -8
right_child=4 2 8 -5 6 -7 13 -9 -10 -11 -12 12 -14 -15
leaf_value=-0.0040148291122184968 0.001427138708472758 3.140033698598794e-05 -0.0007526341895044414 -0.002729794702291882 0.023774821186143793 -0.00041487526258945272 0.011143724939156994 0.0019509861268721461 -0.0048023900203251028 0.0088807910624295657 0.0068863823812875067 0.0045191642742815523 0.011078588667587446 0
leaf_weight=2082.0804986506701 320.8781974837184 227.66285658627748 970.68711575120687 549.89549777656794 40.240188248455524 506.68903912603855 131.05409816652536 876.95325732976198 845.5358147546649 413.1922193095088 330.44251953810453 485.23332911729813 183.69747792929411 62.047350041568279
leaf_count=22131 3124 2300 9824 5823 350 5110 1210 8630 8967 3783 3101 4551 1647 616
internal_value=-4.478e-06 -0.00110836 0.000325493 0.00257751 0.00400816 0.00299769 0.010446 0.00416148 -0.0026431 0.00614759 0.00410672 0.00475357 0.00633531 0.00761098
internal_weight=8026.29 6296.45 4214.37 2398.15 1729.84 1496.5 233.342 1848.25 1816.22 971.298 558.105 989.809 668.931 193.101
internal_count=81167 64559 42428 23637 16608 14432 2176 17814 18791 9184 5401 9322 6198 1826
is_linear=0
shrinkage=0.009


Tree=20
num_leaves=15
num_cat=2
split_feature=2 18 16 10 16 16 28 3 2 3 2 16 16 29
split_gain=419.348 388.843 217.887 196.568 177.506 115.672 97.1365 68.0696 73.4488 63.522 58.3069 56.5648 70.9733 53.7538
threshold=6192.5000000000009 0.63333333333333341 7.0992729161423762 2016.5000000000002 5.7717498456674869 7.1705498468168676 0.13171604033550574 0 1899.5000000000002 1 12937.500000000002 5.6374111063757883 7.0701835524365846 7.791666666666667
decision_type=2 2 2 2 2 2 2 1 2 1 2 2 2 2
left_child=1 3 6 4 -1 -6 -3 8 -4 -5 11 -2 13 -13
right_child=10 2 7 9 5 -7 -8 -9 -10 -11 -12 12 -14 -15
leaf_value=-0.0013019899939131971 -0.0051663179485837447 0.0058578371871503866 0.015034456447921353 -0.00062713801326594863 0.0057034731899550436 -0.00012826037590559069 0.012755402231755574 -0.00033458280463472532 0.0026588563306649466 -0.0043188675051175872 -0.0055505222951476542 0.0048411030061865793 -0.0039116126465717554 -0.0010227889569797803
leaf_weight=1097.1582630202174 406.40697897970676 931.84099560976028 51.286067456007004 670.28414532542229 795.23044621944427 416.93684240430593 205.10162281244993 660.02126460522413 170.97003234177828 917.94321141391993 684.96740300953388 189.0135605931282 433.83688934892416 378.75836255401373
leaf_count=11363 4315 8822 493 6857 7530 4174 1849 6607 1669 9532 7353 1944 4567 3911
internal_value=7.37894e-05 0.00129968 0.00450537 -0.000358871 0.00131463 0.00369032 0.00711107 0.00113693 0.0053212 -0.00279778 -0.00338734 -0.0023283 -0.00116737 0.000913984
internal_weight=8009.76 5916.77 2019.22 3897.55 2309.33 1212.17 1136.94 882.277 222.256 1588.23 2092.98 1408.02 1001.61 567.772
internal_count=80986 58896 19440 39456 23067 11704 10671 8769 2162 16389 22090 14737 10422 5855
cat_boundaries=0 1 2
cat_threshold=140 165
is_linear=0
shrinkage=0.009


Tree=21
num_leaves=15
num_cat=1
split_feature=26 18 2 26 2 29 3 29 5 6 2 30 0 26
split_gain=446.799 334.301 229.454 142.505 141.937 130.383 130.175 127.178 112.296 87.1247 71.9805 70.4764 63.8998 63.8618
threshold=0.14314900158859023 0.63333333333333341 5231.5000000000009 0.21811023622047243 3016.5000000000005 7.8750000000000009 0 7.8750000000000009 3.5000000000000004 3.5000000000000004 2355.5000000000005 2212.5000000000005 1.0000000180025095e-35 0.081756138746218218
decision_type=2 2 2 2 2 2 1 2 2 2 2 2 2 2
left_child=1 4 6 8 5 -1 -3 -5 -2 12 11 -9 -7 -6
right_child=3 2 -4 7 13 9 -8 10 -10 -11 -12 -13 -14 -15
leaf_value=-0.0032559692146139729 0.0057829378944232249 0.0085758944439526408 -0.0021477110375092731 0.025999472920497601 -0.0060475294551671352 0.0012247720064327157 0.0023827263000243512 0.010558234473412002 -0.00037476004243334896 -0.0038940176909509224 0.0060102562182294192 0.042743206400871793 0.0065153217960457147 -0.0028025495843538831
leaf_weight=740.2692189887166 654.20150173455477 362.05000025033951 752.87681476771832 40.204950913786888 667.12058819830418 613.08868224173784 1198.9650230258703 16.763192616403106 374.56802245229483 187.46043510735035 167.84272513538599 9.0758907869458181 268.48634520173073 1956.9324189499021
leaf_count=7699 6100 3392 7922 343 7182 6113 11636 151 3780 1951 1590 81 2638 20408
internal_value=7.2955e-05 -0.000845449 0.00192534 0.00498743 -0.00229364 -0.000348756 0.00389554 0.0113448 0.0035324 0.00165608 0.00824449 0.0223313 0.00284679 -0.00363116
internal_weight=8009.91 6747.25 2313.89 1262.66 4433.36 1809.3 1561.02 233.887 1028.77 1069.04 193.682 25.8391 881.575 2624.05
internal_count=80986 68941 22950 12045 45991 18401 15028 2165 9880 10702 1822 232 8751 27590
cat_boundaries=0 1
cat_threshold=140
is_linear=0
shrinkage=0.009


Tree=22
num_leaves=15
num_cat=1
split_feature=26 18 24 26 10 30 0 10 5 16 5 28 16 16
split_gain=437.415 328.706 194.79 137.945 135.836 152.712 138.974 118.789 109.548 101.982 85.91 84.1066 70.9206 63.5797
threshold=0.14314900158859023 0.63333333333333341 0 0.21811023622047243 2016.5000000000002 8934.5000000000018 1.0000000180025095e-35 2016.5000000000002 3.5000000000000004 7.0992729161423762 3.5000000000000004 0.11598775392405726 5.3231705135073355 5.7717498456674869
decision_type=2 2 9 2 2 2 2 2 2 2 2 2 2 2
left_child=1 4 -3 8 5 6 13 -5 -2 10 11 -4 -8 -1
right_child=3 2 9 7 -6 -7 12 -9 -10 -11 -12 -13 -14 -15
leaf_value=-0.0029602867243543858 0.0057058439417265027 -0.0020675611800697103 0.0049253202884503239 0.0080935946225471761 -0.0041252538049949272 -0.0051831796679059072 -0.00068343624488952028 0.024932015469715796 -0.00037149675971518228 0.0010219886368361113 0.001126983836452755 0.011723853650869693 0.007040310223913996 0.00065510834697694821
leaf_weight=743.46661791950464 657.06163606792688 696.20274367183447 431.18927197158337 193.6926202699542 1865.9085253253579 538.91487068682909 136.98496858030558 42.14756316691637 374.45897667109966 702.91439179331064 256.13085838407278 230.72464103251696 308.5648495182395 831.49473404884338
leaf_count=7856 6100 7286 4043 1811 19709 5798 1434 354 3780 7040 2493 2088 2995 8199
internal_value=7.23782e-05 -0.000838336 0.00190569 0.00492426 -0.00227719 -0.000926261 0.000204899 0.0111503 0.00349112 0.00361778 0.00559515 0.00731011 0.00464582 -0.00104592
internal_weight=8009.86 6742.5 2317.16 1267.36 4425.33 2559.43 2020.51 235.84 1031.52 1620.96 918.045 661.914 445.55 1574.96
internal_count=80986 68941 22950 12045 45991 26282 20484 2165 9880 15664 8624 6131 4429 16055
cat_boundaries=0 1
cat_threshold=4
is_linear=0
shrinkage=0.009


Tree=23
num_leaves=15
num_cat=0
split_feature=26 18 2 2 26 29 29 5 6 5 2 30 26 10
split_gain=428.245 323.15 221.455 139.318 133.52 126.302 114.917 106.877 85.0723 72.4776 68.4618 64.913 63.1519 62.0593
threshold=0.14314900158859023 0.63333333333333341 5231.5000000000009 3016.5000000000005 0.21811023622047243 7.8750000000000009 7.8750000000000009 3.5000000000000004 3.5000000000000004 2.5000000000000004 2355.5000000000005 2212.5000000000005 0.081756138746218218 2016.5000000000002
decision_type=2 2 2 2 2 2 2 2 2 2 2 2 2 2
left_child=1 3 9 5 7 -1 -6 -2 -7 -3 11 -8 -5 -4
right_child=4 2 13 12 6 8 10 -9 -10 -11 -12 -13 -14 -15
leaf_value=-0.0032082691720080273 0.005630146352187144 0.0055844192060550794 -0.0038317814131808773 -0.0060046878562582196 0.0246152399897034 0.002804662941610431 0.010248105927261674 -0.00036826092216087118 -0.0038650259091971093 0.0016779193986161548 0.0058186501206955394 0.040745298047826367 -0.002766340083244927 0.0017814129220330623
leaf_weight=735.99306448549032 659.89123127609491 854.65125352144241 524.33583845943213 661.75521256029606 41.708841353654861 884.11877841502428 16.997009508311752 374.35090707242489 186.74069910496473 714.73609039932489 169.66078071296215 9.4219722896814329 1948.7384516447783 226.7187809869647
leaf_count=7699 6100 8056 5560 7182 343 8751 151 3780 1951 6972 1590 81 20408 2362
internal_value=7.16782e-05 -0.000831405 0.00188588 -0.00226085 0.00486196 -0.00033415 0.0109593 0.00345046 0.00163292 0.00381126 0.00799759 0.0215765 -0.0035909 -0.00212535
internal_weight=8009.82 6737.79 2320.44 4417.35 1272.03 1806.85 237.789 1034.24 1070.86 1569.39 196.08 26.419 2610.49 751.055
internal_count=80986 68941 22950 45991 12045 18401 2165 9880 10702 15028 1822 232 27590 7922
is_linear=0
shrinkage=0.009


Tree=24
num_leaves=15
num_cat=3
split_feature=2 18 16 29 16 16 3 5 3 2 17 3 0 16
split_gain=399.186 359.287 206.971 186.889 170.161 112.902 73.4796 81.5443 64.9986 69.7518 85.7348 62.6504 62.1957 59.4985
threshold=6192.5000000000009 0.63333333333333341 7.0992729161423762 7.9583333333333348 5.7717498456674869 7.1705498468168676 0 3.5000000000000004 1 1899.5000000000002 75.916666666666671 2 1.0000000180025095e-35 5.8597070268120381
decision_type=2 2 2 2 2 2 1 2 1 2 2 1 2 2
left_child=1 3 6 11 -5 12 7 13 9 10 -4 -1 -6 -3
right_child=-2 2 8 4 5 -7 -8 -9 -10 -11 -12 -13 -14 -15
leaf_value=-0.00057617896678653841 -0.0033242141170810573 0.0043153795397489177 0.0012439570462923944 -0.0012854342969638912 0.0040165290093398184 -0.00017034014114027327 0.0042098775580471327 0.0036273878044711205 -0.0003945931298905651 0.0025019859198823257 0.02480075169142363 -0.0042529854587983465 0.0097086493254898969 0.012931889276572569
leaf_weight=666.99553573131561 2076.2917258664966 84.097488395869732 23.481327414512634 1095.2611043229699 583.05389654636383 418.43282373249531 563.09921053797007 158.04197215288877 663.56515967845917 172.84155505895615 28.955252319574356 909.34392622113228 217.89723166078329 348.43656679242849
leaf_count=6857 22090 797 220 11363 5524 4174 5296 1517 6607 1669 273 9532 2006 3061
internal_value=7.0993e-05 0.00126062 0.00431756 -0.000341834 0.00128325 0.00359777 0.0068335 0.00909346 0.00104146 0.00510083 0.0144457 -0.0027337 0.00557731 0.0112788
internal_weight=8009.79 5933.5 2042.52 3890.98 2314.65 1219.38 1153.68 590.576 888.843 225.278 52.4366 1576.34 800.951 432.534
internal_count=80986 58896 19440 39456 23067 11704 10671 5375 8769 2162 493 16389 7530 3858
cat_boundaries=0 1 2 3
cat_threshold=173 140 165
is_linear=0
shrinkage=0.009


Tree=25
num_leaves=15
num_cat=2
split_feature=16 16 2 26 29 5 2 26 3 16 18 26 3 2
split_gain=404.41 437.405 256.41 194.282 136.095 132.35 128.204 126.56 120.772 70.3996 68.1443 63.9466 63.8013 57.3154
threshold=5.7446425582262615 7.0992729161423762 11940.500000000002 0.15488661175526255 7.9583333333333348 3.5000000000000004 4266.5000000000009 0.13607670175290895 0 6.5804411678550965 0.29166666666666669 0.18369289340101522 1 2292.5000000000005
decision_type=2 2 2 2 2 2 2 2 1 2 2 2 1 2
left_child=7 2 3 5 10 8 12 13 9 -2 -5 -6 -3 -1
right_child=1 6 -4 4 11 -7 -8 -9 -10 -11 -12 -13 -14 -15
leaf_value=-0.0014076326761322793 0.0057118676081847437 -0.0033627036057951813 -0.0043002247751458816 0.010277071453148297 0.0036079027289022451 0.00073667834114624563 -0.0039976270020170212 0.00078674167785573192 0.0029080272599297844 0.011414990134188889 0.030861078923969242 0.014710061538906459 0.001317577503037467 -0.0048602928326266434
leaf_weight=534.89319320768118 463.17259223014116 293.88138679414988 298.01183608174324 21.787032328546047 106.95672182738781 817.67075823992491 995.13781709969044 579.08990586549044 959.28219268471003 294.01806436479092 40.058923855423927 72.501614563167095 1040.5880258828402 1517.6684141904116
leaf_count=5625 4330 2983 3213 197 992 8168 10480 5649 9145 2712 350 646 10294 16460
internal_value=-2.17972e-05 0.00138624 0.00361649 0.00446991 0.0122016 0.00372968 -0.00155231 -0.002916 0.00515009 0.00783602 0.0237833 0.00814902 0.000264627 -0.00396503
internal_weight=8034.72 5403.07 3073.46 2775.45 241.304 2534.14 2329.61 2631.65 1716.47 757.191 61.846 179.458 1334.47 2052.56
internal_count=81244 53510 29753 26540 2185 24355 23757 27734 16187 7042 547 1638 13277 22085
cat_boundaries=0 1 2
cat_threshold=165 322
is_linear=0
shrinkage=0.009


Tree=26
num_leaves=15
num_cat=0
split_feature=26 16 16 28 16 2 16 26 18 5 26 5 10 18
split_gain=399.695 277.76 329.07 158.19 146.388 158.44 124.783 85.1165 80.339 69.1075 66.2197 65.4832 59.1238 55.9248
threshold=0.10562589017249562 5.8452494861287336 7.0992729161423762 0.13171604033550574 5.7717498456674869 6067.5000000000009 7.0288762063515806 0.18369289340101522 0.63333333333333341 2.5000000000000004 0.16662586976723104 2.5000000000000004 2016.5000000000002 0.55000000000000016
decision_type=2 2 2 2 2 2 2 2 2 2 2 2 2 2
left_child=4 10 3 7 -1 6 11 8 -3 -4 -2 -6 -12 -14
right_child=1 2 9 -5 5 -7 -8 -9 -10 -11 12 -13 13 -15
leaf_value=-0.0050333162733989367 -0.001935455940208343 0.0019929586832772082 0.0020734924100229688 0.01146575824950719 0.0059436224536585048 -0.0039493519473543723 -0.0019856236292750012 0.014686606469279388 0.0066689631899773663 -0.0020695476409464818 0.00056160147044178948 0.00053867874315569845 0.0077835679647256439 0.03637865598937759
leaf_weight=1112.7351790815592 1440.3933278024197 686.08041656017303 652.35686049610376 347.85737475007772 388.61788039654493 922.90034233033657 658.13157665729523 64.892423689365387 536.20348592847586 651.90406582504511 167.09550450742245 348.1879546046257 50.233915694057941 6.4567401856183997
leaf_count=12068 15008 6666 6410 3162 3611 9985 6690 565 4982 6591 1604 3387 460 55
internal_value=-2.16036e-05 0.00171018 0.00337442 0.00606387 -0.00234808 -0.00105492 0.000853746 0.00459624 0.00405201 0 -0.00122384 0.00340207 0.00331508 0.0112572
internal_weight=8034.05 4603.47 2939.29 1635.03 3430.57 2317.84 1394.94 1287.18 1222.28 1304.26 1664.18 736.806 223.786 56.6907
internal_count=81244 45503 28376 15375 35741 23673 13688 12213 11648 13001 17127 6998 2119 515
is_linear=0
shrinkage=0.009


Tree=27
num_leaves=15
num_cat=0
split_feature=26 16 16 28 16 2 16 26 18 4 29 26 10 1
split_gain=392.778 271.981 320.899 152.774 144.731 156.118 122.344 82.1545 78.1322 74.9291 71.2924 83.3812 82.5239 65.4467
threshold=0.10562589017249562 5.8452494861287336 7.0992729161423762 0.13171604033550574 5.7717498456674869 6067.5000000000009 7.0288762063515806 0.18369289340101522 0.63333333333333341 2.5000000000000004 7.2083333333333348 0.15993708745874588 2015.5000000000002 1.0000000180025095e-35
decision_type=2 2 2 2 2 2 2 2 2 2 2 2 2 2
left_child=4 -2 3 7 -1 6 -6 8 -3 -4 11 -5 -12 -14
right_child=1 2 9 10 5 -7 -8 -9 -10 -11 12 -13 13 -15
leaf_value=-0.0050081014701625348 -0.0012138931755617849 0.0019719994879349419 0.001367556617768126 0.014003186976813355 0.0033628988337243396 -0.0039261599837072366 -0.0019708130834614262 0.014398833180059894 0.0065757105765902827 -0.0034061639006404089 0.015167194227030096 0.037699531971606949 0.0020939087582967759 0.016740628380273327
leaf_weight=1108.2931437119842 1662.5305325463414 687.12829399108887 931.38411004841328 62.979886174201965 738.69250858575106 920.01044259220362 657.11506625264883 65.592440277338028 538.90242273360491 372.87015080451965 107.84774226695299 15.793814003467558 133.35376252233982 30.86253484338522
leaf_count=12068 17127 6666 9190 588 6998 9985 6690 565 4982 3811 957 132 1206 279
internal_value=-2.1414e-05 0.00169269 0.00333561 0.00598211 -0.0023314 -0.00104635 0.000845498 0.00453923 0.00400327 0 0.0112657 0.0189101 0.00901308 0.00490987
internal_weight=8033.36 4609.25 2946.72 1642.46 3424.11 2315.82 1395.81 1291.62 1226.03 1304.25 350.838 78.7737 272.064 164.216
internal_count=81244 45503 28376 15375 35741 23673 13688 12213 11648 13001 3162 720 2442 1485
is_linear=0
shrinkage=0.009


Tree=28
num_leaves=15
num_cat=0
split_feature=26 18 29 26 26 16 2 16 16 29 16 4 2 5
split_gain=385.987 268.191 178.624 227.112 162.771 143.087 153.824 119.95 118.444 95.646 115.822 77.0761 68.8799 63.6691
threshold=0.10562589017249562 0.63333333333333341 7.791666666666667 0.16168154761904763 0.16662586976723104 5.7717498456674869 6067.5000000000009 7.0288762063515806 7.0992729161423762 7.8750000000000009 5.8452494861287336 2.5000000000000004 6367.5000000000009 2.5000000000000004
decision_type=2 2 2 2 2 2 2 2 2 2 2 2 2 2
left_child=5 4 3 -3 9 -1 7 13 12 -2 -11 -12 -4 -7
right_child=1 2 8 -5 -6 6 -8 -9 -10 10 11 -13 -14 -15
leaf_value=-0.0049829359089723965 -0.0028582117804140956 0.0073873990766654849 0.006492529408339511 0.029315921557168074 0.0054950050234076767 0.0058187102950350124 -0.0039030432990203451 -0.0019560918500770045 -0.00058517087526959268 -0.0017845324372339098 0.0047499015352549523 -0.0015184705619089957 -0.0012458132004018905 0.00050201912518654053
leaf_weight=1103.8858568817377 1027.7329599261284 397.91317831724882 566.02273640036583 42.684892825782299 392.85087055712938 391.34893195331097 917.1438599973917 656.10718707740307 485.56508086621761 788.19229841977358 590.00119185447693 214.75403019040823 109.24448300153017 349.23068790882826
leaf_count=12068 10694 3786 5125 362 3665 3611 9985 6690 4795 8227 5609 2144 1096 3387
internal_value=-2.12236e-05 0.00167542 0.00465162 0.00953841 9.07352e-05 -0.00231482 -0.00103786 0.000837277 0.0027884 -0.000716132 0.000660332 0.00306598 0.0052273 0.00332411
internal_weight=8032.68 4614.96 1601.43 440.598 3013.53 3417.72 2313.83 1396.69 1160.83 2620.68 1592.95 804.755 675.267 740.58
internal_count=81244 45503 15164 4148 30339 35741 23673 13688 11016 26674 15980 7753 6221 6998
is_linear=0
shrinkage=0.009


Tree=29
num_leaves=15
num_cat=1
split_feature=16 16 2 26 2 23 26 28 3 0 18 26 2 26
split_gain=379.665 409.51 239.57 176.168 124.415 122.618 121.552 108.355 62.4769 60.5249 59.8705 58.2304 56.788 47.9476
threshold=5.7446425582262615 7.0992729161423762 11940.500000000002 0.15488661175526255 4266.5000000000009 2016.5000000000002 0.13607670175290895 0.12112027599021462 0 1.0000000180025095e-35 0.29166666666666669 0.18369289340101522 2292.5000000000005 0.094706888388586666
decision_type=2 2 2 2 2 2 2 2 1 2 2 2 2 2
left_child=6 2 3 7 8 11 12 9 -3 -2 -7 -5 -1 -9
right_child=1 4 -4 5 -6 10 -8 13 -10 -11 -12 -13 -14 -15
leaf_value=-0.0013277766290799157 0.0013208289813175962 -0.0033323586785348109 -0.0042250797204683756 0.003382232576225538 -0.0039422826906763703 0.0097022516669190342 0.0007796624275784339 0.00094526697038135334 0.001305298468801826 0.0051391447183932876 0.028710645542053031 0.013849670537461207 -0.0047798884930883179 0.0072504441099948804
leaf_weight=530.65398574620485 1299.0860464498401 292.74874181300402 294.84212595969439 108.52176497876644 987.65937491506338 22.358927175402641 579.37717323005199 117.97165048867464 1041.5445536598563 458.88180097192526 42.150620847940445 74.894239529967308 1498.947959728539 682.34143192321062
leaf_count=5625 12526 2983 3213 992 10480 197 5649 1153 10294 4350 350 646 16460 6326
internal_value=-2.11049e-05 0.00133497 0.00347588 0.00428833 -0.00152043 0.0115471 -0.00284323 0.00358093 0.000265671 0.00232288 0.0222869 0.00771066 -0.00388185 0.0063325
internal_weight=8031.98 5423 3101.05 2806.21 2321.95 247.926 2608.98 2558.28 1334.29 1757.97 64.5095 183.416 2029.6 800.313
internal_count=81244 53510 29753 26540 23757 2185 27734 24355 13277 16876 547 1638 22085 7479
cat_boundaries=0 1
cat_threshold=322
is_linear=0
shrinkage=0.009


Tree=30
num_leaves=15
num_cat=1
split_feature=2 18 29 6 10 6 27 3 28 0 28 2 2 6
split_gain=384.254 348.914 167.52 156.637 118.023 116.16 97.2437 90.013 88.7462 57.6518 55.0937 49.8755 47.9506 45.3641
threshold=6005.5000000000009 0.63333333333333341 7.8750000000000009 2.5000000000000004 2016.5000000000002 2.5000000000000004 0.12321485370328887 0 0.14208599637104116 1.0000000180025095e-35 0.13171604033550574 12937.500000000002 2016.5000000000002 4.5000000000000009
decision_type=2 2 2 2 2 2 2 1 2 2 2 2 2 2
left_child=1 2 10 6 7 8 -4 -3 -6 -9 -1 -2 -8 -5
right_child=11 4 3 13 5 -7 12 9 -10 -11 -12 -13 -14 -15
leaf_value=-0.0034438777566759512 -0.0022422431907422437 0.0065797467103982255 0.00058404481814505662 -0.00050232573821929036 0.0050587246465789888 0.018059447465704835 0.0085981381773229185 0.00014421140097050275 0.019337595388432095 0.0049669608551835276 0.0011718924931568471 -0.0052215821476295256 0.0036779439235782971 -0.0051315565081275927
leaf_weight=1251.4476866945624 1484.1797476857901 372.71177250146866 647.72843044251204 749.24269516766071 507.15371885895729 75.759081788361073 251.8621818870306 766.59730041027069 38.431922666728497 273.93851807713509 248.25306185334921 669.99804827570915 474.36947400122881 224.49253776669502
leaf_count=13127 15712 3381 6448 7590 4810 691 2396 7322 344 2585 2518 7426 4579 2383
internal_value=7.74423e-05 0.00126952 -0.000322344 0.00117596 0.00428402 0.00756165 0.00313512 0.00283618 0.0060844 0.00140934 -0.00267378 -0.00317326 0.00539764 -0.00157924
internal_weight=8036.17 5881.99 3847.4 2347.7 2034.59 621.345 1373.96 1413.25 545.586 1040.54 1499.7 2154.18 726.232 973.735
internal_count=81312 58174 39041 23396 19133 5845 13423 13288 5154 9907 15645 23138 6975 9973
cat_boundaries=0 1
cat_threshold=140
is_linear=0
shrinkage=0.009


Tree=31
num_leaves=15
num_cat=0
split_feature=26 16 16 5 26 16 16 28 30 5 26 29 16 29
split_gain=389.813 228.84 267.357 141.984 115.565 112.407 113.249 105.081 82.3036 69.7692 59.5256 71.3988 55.7845 53.47
threshold=0.10712502426028191 5.8452494861287336 7.0992729161423762 3.5000000000000004 0.18369289340101522 5.7443432321218637 7.0717889755819305 0.13171604033550574 7026.5000000000009 2.5000000000000004 0.16662586976723104 6.8750000000000009 4.9133491707057191 7.1250000000000009
decision_type=2 2 2 2 2 2 2 2 2 2 2 2 2 2
left_child=3 10 4 5 7 -1 8 -3 -7 -4 -2 12 -12 -9
right_child=1 2 9 -5 -6 6 -8 13 -10 -11 11 -13 -14 -15
leaf_value=-0.0035360129980200362 -0.0015636658319432488 0.0040962686864159156 0.0025192854074079442 -0.004197689834391817 0.015996833319387907 0.0045748112475986176 -0.0020276782523067621 0.017253054686828549 -0.0013414461633170145 -0.0018298048070120654 -0.0028704660625779401 0.001332338226741321 0.023144268408793293 0.0080164505992546507
leaf_weight=735.773492179811 1302.9895381331444 1100.3971377909184 599.68757060170174 1475.2300099357963 89.990846171975136 636.99937254190445 689.28819119930267 67.419517286121845 268.69320052862167 593.92529940605164 8.4994153082370776 197.65387100726366 23.295987643301487 246.30291805416346
leaf_count=8061 13610 10343 5840 15784 750 5948 7209 603 2822 6002 77 1875 206 2182
internal_value=7.68023e-05 0.00195805 0.00353633 -0.00201174 0.00606052 -0.000624182 0.000713557 0.00542075 0.00280974 0.000347727 -0.000814546 0.00339916 0.0159207 0.010035
internal_weight=8036.15 4230.16 2697.72 3805.98 1504.11 2330.75 1594.98 1414.12 905.693 1193.61 1532.44 229.449 31.7954 313.722
internal_count=81312 41488 25720 39824 13878 24040 15979 13128 8770 11842 15768 2158 283 2785
is_linear=0
shrinkage=0.009


Tree=32
num_leaves=15
num_cat=0
split_feature=26 18 2 10 26 26 16 16 16 16 16 28 27 26
split_gain=382.864 248.637 167.752 154.541 215.623 141.337 102.137 84.3635 80.2797 78.9153 92.2395 75.3049 56.4157 56.1943
threshold=0.10712502426028191 0.63333333333333341 4513.5000000000009 2016.5000000000002 0.15993708745874588 0.18369289340101522 5.6712067730685698 7.1428273161726601 7.0992729161423762 5.6270938891568916 7.2120887187580793 0.13171604033550574 0.10055400351760012 0.14007841398706031
decision_type=2 2 2 2 2 2 2 2 2 2 2 2 2 2
left_child=2 5 6 7 -5 9 -1 -3 12 -2 11 -11 -8 -13
right_child=1 3 -4 4 -6 -7 8 -9 -10 10 -12 13 -14 -15
leaf_value=-0.0033379487545145197 -0.0020358236497492054 0.0050727271602677912 -0.0038947860561528089 0.0070274076424741627 0.026393112438559605 0.0083492121983596203 -0.00076615043565332619 -0.00013034449656946804 -0.0013246373949404014 0.0013249836646771246 -0.0022512361302318576 0.003592434880808014 0.004620468272083054 0.012884626473106574
leaf_weight=560.99906934797764 1082.497518196702 648.56497523933649 1893.1350519582629 370.76025354862213 53.787161223590374 167.38428767770529 215.09789605438709 407.78063333034515 569.04910916090012 825.38934043049812 450.03621128946543 142.54744304716587 561.56630248576403 87.48324017226696
leaf_count=6103 11392 5926 20596 3480 442 1486 2104 4017 5797 8052 4558 1356 5224 779
internal_value=7.60545e-05 0.00193764 -0.00199695 0.00491209 0.00950774 0.000335595 -0.000107797 0.00305585 0.00123224 -0.000179537 0.00114929 0.0026079 0.00311715 0.00716953
internal_weight=8036.08 4236.23 3799.85 1480.89 424.547 2755.34 1906.71 1056.35 1345.71 2587.95 1505.46 1055.42 776.664 230.031
internal_count=81312 41488 39824 13865 3922 27623 19228 9943 13125 26137 14745 10187 7328 2135
is_linear=0
shrinkage=0.009


Tree=33
num_leaves=15
num_cat=0
split_feature=26 18 2 10 26 26 16 16 16 16 16 28 10 5
split_gain=376.041 242.865 165.524 149.815 205.388 137.931 100.481 82.3635 78.6587 77.8384 112.037 61.5505 59.9035 55.121
threshold=0.10712502426028191 0.63333333333333341 4513.5000000000009 2016.5000000000002 0.15993708745874588 0.18369289340101522 5.6712067730685698 7.1428273161726601 7.0992729161423762 5.8452494861287336 7.0717889755819305 0.13171604033550574 2016.5000000000002 3.5000000000000004
decision_type=2 2 2 2 2 2 2 2 2 2 2 2 2 2
left_child=2 5 6 7 -5 9 -1 -3 13 -2 11 -11 -12 -8
right_child=1 3 -4 4 -6 -7 8 -9 -10 10 12 -13 -14 -15
leaf_value=-0.003316743297965313 -0.0017761775533660523 0.005007983017382733 -0.0038717530375008361 0.006927173278282895 0.02567165222964644 0.0082231275000298858 0.0045629222014379545 -0.00012918471726474851 -0.001314079131327518 0.002143869517605953 0.00074782832162947487 0.0082344258942889104 -0.0053171529693048954 -0.00075970709214703022
leaf_weight=559.51188895851374 1265.6539116352797 651.02727029472589 1887.2848011404276 372.73237908631563 54.799208573997021 168.4180364087224 563.52309548854828 407.73972871899605 568.46214160323143 611.01202686876059 307.77594388276339 175.05440863221884 228.00220884382725 214.97133700549603
leaf_count=6103 13268 5926 20596 3480 442 1486 5224 4017 5797 5863 3056 1583 2367 2104
internal_value=7.53112e-05 0.00191748 -0.00198224 0.0048501 0.00935625 0.000332497 -0.000106919 0.00302129 0.00121988 -0.000177918 0.00134561 0.00351254 -0.00181686 0.00308168
internal_weight=8035.97 4242.22 3793.75 1486.3 427.532 2755.92 1906.47 1058.77 1346.96 2587.5 1321.84 786.066 535.778 778.494
internal_count=81312 41488 39824 13865 3922 27623 19228 9943 13125 26137 12869 7446 5423 7328
is_linear=0
shrinkage=0.009


Tree=34
num_leaves=15
num_cat=0
split_feature=26 16 16 2 26 16 28 16 2 4 26 29 6 5
split_gain=369.343 216.804 252.003 163.322 107.98 98.8507 97.6862 77.0728 76.9483 61.7227 100.884 54.4408 54.7833 53.86
threshold=0.10712502426028191 5.8452494861287336 7.0992729161423762 4513.5000000000009 0.18369289340101522 5.6712067730685698 0.13171604033550574 7.0992729161423762 1899.5000000000002 2.5000000000000004 0.16662586976723104 6.8750000000000009 3.5000000000000004 3.5000000000000004
decision_type=2 2 2 2 2 2 2 2 2 2 2 2 2 2
left_child=3 9 4 5 6 -1 -3 13 -4 10 -2 12 -12 -7
right_child=1 2 8 -5 -6 7 -8 -9 -10 -11 11 -13 -14 -15
leaf_value=-0.0032956235144410676 -0.00072172922441389464 0.0039591680828899864 0.0044149774540236152 -0.0038487961573005886 0.015348612383471728 0.0045063094663660387 0.0096414421304684087 -0.0013035946933196143 -0.00094296775940984584 -0.0036762015530130651 0.030772075800499808 0.0049550858939611756 0 -0.00075331437512194538
leaf_weight=558.03692900389433 953.80153662711382 1109.8577292785048 284.56204517930746 1881.4818919077516 92.069306768476963 565.4596461430192 319.35762894898653 567.88025868684053 911.22056972980499 434.92624794691801 14.328675888478758 121.05021353065968 6.9415569230914107 214.84589038044214
leaf_count=6103 9937 10343 2762 20596 750 5224 2785 5797 9080 4534 121 1115 61 2104
internal_value=7.45749e-05 0.00189756 0.00342439 -0.00196763 0.00585467 -0.000106047 0.00523575 0.00120764 0.000324807 -0.000806179 0.000324628 0.00739587 0.0207772 0.0030467
internal_weight=8035.82 4248.12 2717.07 3787.7 1521.28 1906.22 1429.22 1348.19 1195.78 1531.05 1096.12 142.32 21.2702 780.306
internal_count=81312 41488 25720 39824 13878 19228 13128 13125 11842 15768 11234 1297 182 7328
is_linear=0
shrinkage=0.009


Tree=35
num_leaves=15
num_cat=0
split_feature=26 18 16 27 10 2 16 16 10 2 2 26 29 28
split_gain=356.437 244.762 153.453 119.647 108.023 134.021 127.544 105.622 95.604 108.964 78.8657 75.825 125.664 75.6128
threshold=0.1244811632518175 0.63333333333333341 7.0992729161423762 0.10055400351760012 2016.5000000000002 6974.5000000000009 5.7717498456674869 7.0717889755819305 2016.5000000000002 4766.5000000000009 3888.5000000000005 0.15488661175526255 7.791666666666667 0.14208599637104116
decision_type=2 2 2 2 2 2 2 2 2 2 2 2 2 2
left_child=1 4 8 -2 5 6 -1 -8 9 -3 -4 -5 13 -13
right_child=3 2 10 11 -6 -7 7 -9 -10 -11 -12 12 -14 -15
leaf_value=-0.0025762796473110783 0.00016965049775187664 0.004391462613038322 0.0012160341419300731 0.0033618150939760416 -0.004182483144030762 -0.005210563628794981 0.0045888208375349047 -0.0016429331241091445 0.0074728660777971627 -0.0022762374620988383 -0.0040579130143278486 0.013487224396878661 0.0050980486418739377 0.03744477470532636
leaf_weight=811.32546535134315 671.64305082708597 522.34156317263842 463.51248509436846 922.12457985430956 1635.1996486708522 507.70759267359972 596.72635543346405 346.4705468788743 350.82547755539417 318.16147951036692 451.56886836141348 95.52650735527277 319.7057203873992 12.624393798410891
leaf_count=8807 6664 4705 4581 8616 17750 5737 5535 3546 3311 3342 4882 786 2833 96
internal_value=1.81162e-05 -0.00108137 0.0013877 0.00328773 -0.00241812 -0.00113869 3.46958e-05 0.0022902 0.00351869 0.00185681 -0.00137685 0.00483225 0.00797881 0.0163989
internal_weight=8025.46 6003.84 2106.41 2021.62 3897.43 2262.23 1754.52 943.197 1191.33 840.503 915.081 1349.98 427.857 108.151
internal_count=81191 62196 20821 18995 41375 23625 17888 9081 11358 8047 9463 12331 3715 882
is_linear=0
shrinkage=0.009


Tree=36
num_leaves=15
num_cat=0
split_feature=2 16 16 28 5 28 10 29 16 2 4 28 29 18
split_gain=327.987 274.937 308.495 112.357 80.3793 62.6784 60.2279 70.5955 56.7188 56.1192 55.9813 53.6998 51.1197 98.166
threshold=5856.5000000000009 5.8452494861287336 7.0992729161423762 0.13171604033550574 2.5000000000000004 0.10787656020783647 2015.5000000000002 7.2083333333333348 5.8725704195062933 1899.5000000000002 2.5000000000000004 0.10142404020848302 7.791666666666667 0.63333333333333341
decision_type=2 2 2 2 2 2 2 2 2 2 2 2 2 2
left_child=1 10 3 4 -3 -4 -5 -8 -6 -7 11 -1 13 -2
right_child=12 2 5 6 8 9 7 -9 -10 -11 -12 -13 -14 -15
leaf_value=-0.0025761844932004128 -0.0030737678621497303 0.0056625495489663474 -0.0020874537125079133 0.014619058405483056 0.01955157514074617 0.005296357352751844 0.01336548383506833 0.0034932066862913623 0.0013654159512445801 1.2736756235933492e-05 -0.0045334410951712338 0.00068115496703346926 -0.0039096501959307436 0.0040850174186463691
leaf_weight=737.26202209293842 539.8191886767745 933.95786146074533 813.79258905351162 120.54036629199982 14.148292601108549 221.81991497427225 90.019584149122238 179.22217721492052 755.9098564684391 624.48688144236803 398.6853479668498 916.59256255626678 1461.6807200983167 216.92441067844629
leaf_count=7805 5921 8366 8256 1013 136 2147 787 1540 7176 6202 4236 9531 15818 2257
internal_value=1.79157e-05 0.00114369 0.00259268 0.00489018 0.00388353 -0.000299748 0.00926575 0.0068311 0.00171373 0.00140869 -0.00150199 -0.000765542 -0.00292451 -0.00100951
internal_weight=8024.86 5806.44 3753.9 2093.8 1704.02 1660.1 389.782 269.242 770.058 846.307 2052.54 1653.85 2218.42 756.744
internal_count=81191 57195 35623 19018 15678 16605 3340 2327 7312 8349 21572 17336 23996 8178
is_linear=0
shrinkage=0.009


Tree=37
num_leaves=15
num_cat=1
split_feature=26 18 16 27 10 4 16 10 16 4 24 26 29 28
split_gain=348.55 239.373 148.607 115.507 106.884 112.367 96.2546 91.897 83.2999 78.3775 76.333 73.8865 120.544 70.2391
threshold=0.1244811632518175 0.63333333333333341 7.0992729161423762 0.10055400351760012 2016.5000000000002 2.5000000000000004 5.7717498456674869 2016.5000000000002 7.0717889755819305 2.5000000000000004 0 0.15488661175526255 7.791666666666667 0.14208599637104116
decision_type=2 2 2 2 2 2 2 2 2 2 9 2 2 2
left_child=1 4 7 -2 5 6 -1 9 -8 -3 -4 -5 13 -13
right_child=3 2 10 11 -6 -7 8 -9 -10 -11 -12 12 -14 -15
leaf_value=-0.0021383826239586472 0.00017750504152185394 0.0038800969499298284 -0.0051522327715368852 0.0033064243200840852 -0.0041560537656429126 -0.0039001938554975978 0.0047182308427588231 0.0073137783028350981 -0.0012747162575084609 -0.0018308157401776624 0.00041247286840152082 0.013221933523524841 0.0050270699436754749 0.036046015727023102
leaf_weight=687.07327406108379 671.17803916335106 540.76878273487091 292.46078485250473 925.42874874919653 1629.087897144258 775.73961579799652 497.17495193332434 353.71850987523794 298.70162227749825 301.56471759080887 621.02056171000004 96.501175306737423 321.00598473101854 12.9837778955698
leaf_count=7500 6664 4963 3216 8616 17750 8426 4620 3311 3079 3084 6247 786 2833 96
internal_value=1.77443e-05 -0.00107164 0.00136656 0.00324509 -0.00239693 -0.00112405 0.000322262 0.00345615 0.00245782 0.00182487 -0.00135964 0.00475678 0.00785222 0.0160412
internal_weight=8024.41 5997.31 2109.53 2027.1 3887.78 2258.69 1482.95 1196.05 795.877 842.334 913.481 1355.92 430.491 109.485
internal_count=81191 62196 20821 18995 41375 23625 15199 11358 7699 8047 9463 12331 3715 882
cat_boundaries=0 1
cat_threshold=4
is_linear=0
shrinkage=0.009


Tree=38
num_leaves=15
num_cat=0
split_feature=26 18 16 5 10 2 16 16 10 2 2 26 29 16
split_gain=341.794 235.49 145.562 112.759 105.603 130.315 122.017 100.232 89.3836 103.995 76.9714 71.7531 116.041 69.8535
threshold=0.1244811632518175 0.63333333333333341 7.0992729161423762 3.5000000000000004 2016.5000000000002 6974.5000000000009 5.7717498456674869 7.0717889755819305 2016.5000000000002 4766.5000000000009 3888.5000000000005 0.15488661175526255 7.791666666666667 6.6331661895692369
decision_type=2 2 2 2 2 2 2 2 2 2 2 2 2 2
left_child=1 4 8 11 5 6 -1 -8 9 13 -4 -2 -13 -3
right_child=3 2 10 -5 -6 -7 7 -9 -10 -11 -12 12 -14 -15
leaf_value=-0.00252809861737636 0.0032684889743446197 0.0018269549604105571 0.0012069912238199779 0.00017588357854375804 -0.0041323480645267469 -0.0051534765567636956 0.0044571081024573087 -0.0016106160844662411 0.0072079971403737429 -0.0022466511935403653 -0.0040108888047029317 0.015722142195619432 0.0049633482398692488 0.0087491410140466928
leaf_weight=806.87433123588562 927.73477003723383 342.42165172100067 463.8321939855814 671.2699728757143 1623.7123613283038 502.89720634371042 601.48739051818848 345.33523926138878 355.67188464850187 317.10569459944963 448.6484403014183 110.70374642312527 322.1969215720892 183.94819477945566
leaf_count=8807 8616 3099 4581 6664 17750 5737 5535 3546 3311 3342 4882 882 2833 1606
internal_value=1.75522e-05 -0.00106301 0.00135286 0.00320838 -0.00238003 -0.00111505 3.81263e-05 0.00223458 0.00341613 0.00180587 -0.00134883 0.00469773 0.00773843 0.00426432
internal_weight=8023.84 5991.93 2111.63 2031.91 3880.31 2256.59 1753.7 946.823 1199.15 843.476 912.481 1360.64 432.901 526.37
internal_count=81191 62196 20821 18995 41375 23625 17888 9081 11358 8047 9463 12331 3715 4705
is_linear=0
shrinkage=0.009


Tree=39
num_leaves=15
num_cat=0
split_feature=26 16 16 2 5 4 26 29 2 28 16 26 29 4
split_gain=335.169 221.318 258.701 152.564 110.079 75.7848 69.6801 111.7 68.0638 65.4293 52.93 54.3585 54.4439 51.233
threshold=0.1244811632518175 5.7446425582262615 7.0992729161423762 6974.5000000000009 3.5000000000000004 1.5000000000000002 0.15488661175526255 7.791666666666667 3888.5000000000005 0.14208599637104116 6.9706355435785872 0.096736460404725708 9.2083333333333339 2.5000000000000004
decision_type=2 2 2 2 2 2 2 2 2 2 2 2 2 2
left_child=1 -1 3 5 6 -3 -2 9 -4 -8 -7 -12 -13 -9
right_child=4 2 8 -5 -6 10 7 13 -10 -11 11 12 -14 -15
leaf_value=-0.00358914337709027 0.003231089091713088 0.0058450856330321934 -0.00079755374138815041 -0.0022160729684798527 0.00017427713080903109 0.0013143180172540672 0.012697838294937938 0.0066430778989653985 -0.004398226353262479 0.034389721954934477 -0.0027962050246675943 0.0068790318103177962 0.023188808354689606 -0.0023915041576876607
leaf_weight=1903.2976508066058 930.01782168447971 621.14725157618523 893.33860599994659 524.13538224250078 671.3610778003931 1092.7713025063276 98.488253757357597 262.0133495554328 824.42316418141127 13.434970058500765 30.38800036162138 74.49873161315918 22.503225781023502 61.361916780471802
leaf_count=21170 8616 5601 9056 5777 6664 10289 786 2278 9110 96 293 695 205 555
internal_value=1.73563e-05 -0.00105446 0.000124882 0.00205743 0.00317211 0.00327884 0.00463951 0.00762652 -0.00253106 0.0154104 0.00196469 0.00746771 0.0107754 0.00490069
internal_weight=8023.18 5986.5 4083.21 2365.44 2036.68 1841.31 1365.32 435.298 1717.76 111.923 1220.16 127.39 97.002 323.375
internal_count=81191 62196 41026 22860 18995 17083 12331 3715 18166 882 11482 1193 900 2833
is_linear=0
shrinkage=0.009


Tree=40
num_leaves=15
num_cat=0
split_feature=2 26 16 16 5 26 0 26 29 6 0 29 29 16
split_gain=364.754 290.344 248.78 251.072 110.438 73.4815 65.23 62.3841 65.8048 56.7814 50.9572 53.597 48.2406 47.1104
threshold=6005.5000000000009 0.14314900158859023 5.8452494861287336 7.0992729161423762 2.5000000000000004 0.21811023622047243 1.0000000180025095e-35 0.14314900158859023 7.791666666666667 3.5000000000000004 1.0000000180025095e-35 7.1250000000000009 7.3750000000000009 5.4528420594425118
decision_type=2 2 2 2 2 2 2 2 2 2 2 2 2 2
left_child=1 2 9 4 10 13 -5 -2 -9 -1 -4 -12 -7 -3
right_child=7 5 3 6 -6 12 -8 8 -10 -11 11 -13 -14 -15
leaf_value=-0.0014226002752340146 -0.0040085301008643557 0.00036821309351104303 0.0047103455343155028 -0.0023292816684309186 0.0014880424444814792 0.022244630864413951 0.0020019744056861636 0.0062128311598721262 -0.0022030458907021429 -0.0049756670281799909 0.0024364204751398111 0.01183991661922003 0.0089025751414946452 0.005758823597239531
leaf_weight=1227.3045743703842 1715.0054515227675 174.50338856875896 725.60107316821814 1018.1681194007397 824.63797976076603 27.691618002951145 387.1735637113452 101.29382935166359 291.7573985606432 525.31789271533489 69.32514014840126 193.55633074045181 138.49264380335808 579.60024193674326
leaf_count=13084 19241 1682 6456 10402 7767 201 3917 933 2836 5790 643 1645 1170 5189
internal_value=-5.35927e-05 0.00109487 0.000233272 0.00172066 0.00393475 0.00573859 -0.00112955 -0.00326735 -1.02569e-05 -0.00249293 0.00596645 0.00939619 0.011192 0.00452356
internal_weight=7999.43 5891.37 4971.08 3218.46 1813.12 920.288 1405.34 2108.06 393.051 1752.62 988.483 262.881 166.184 754.104
internal_count=80956 57946 49704 30830 16511 8242 14319 23010 3769 18874 8744 2288 1371 6871
is_linear=0
shrinkage=0.009


Tree=41
num_leaves=15
num_cat=0
split_feature=2 26 18 29 6 28 0 26 26 29 5 17 29 5
split_gain=358.883 283.699 256.91 162.65 118.178 105.098 95.1699 71.0925 61.6257 64.4346 48.008 56.0874 46.0356 44.8065
threshold=6005.5000000000009 0.14314900158859023 0.63333333333333341 7.8750000000000009 3.5000000000000004 0.11598775392405726 1.0000000180025095e-35 0.21811023622047243 0.14314900158859023 7.791666666666667 1.5000000000000002 69.816666666666677 7.3750000000000009 2.5000000000000004
decision_type=2 2 2 2 2 2 2 2 2 2 2 2 2 2
left_child=1 2 3 -1 6 13 -5 -3 -2 -10 11 -8 -9 -4
right_child=8 7 5 4 -6 -7 10 12 9 -11 -12 -13 -14 -15
leaf_value=-0.0037285234985643275 -0.0039853041468778652 0.0044679154215787314 0.0030205825877426826 4.0607034750768411e-05 -0.0043829442019756555 0.0060253722139133725 0.016081360536110402 0.021723062446802537 0.0061283799421082627 -0.0021869293553118184 0.0030760448694188958 0.0037245132453465374 0.0087658467589162674 -0.00058159512541244298
leaf_weight=1299.3807336091995 1709.5008474811912 756.62870239466429 611.82927932590246 1145.9107616469264 345.26753595471382 613.78008314967155 59.489154182374477 28.101795174181461 101.76471728086472 291.26530349999666 322.97623922675848 64.334692172706127 139.38444347679615 508.66920238733292
leaf_count=13928 19241 6871 5680 11484 3741 5556 577 201 933 2836 3175 606 1170 4957
internal_value=-5.31126e-05 0.00108422 0.00023112 -0.00126435 0.000383302 0.00302779 0.00142239 0.00566354 -0.00324651 -9.99579e-06 0.00494531 0.00974197 0.0110053 0.00137738
internal_weight=7998.28 5895.75 4971.64 3237.36 1937.98 1734.28 1592.71 924.115 2102.53 393.03 446.8 123.824 167.486 1120.5
internal_count=80956 57946 49704 33511 19583 16193 15842 8242 23010 3769 4358 1183 1371 10637
is_linear=0
shrinkage=0.009


Tree=42
num_leaves=15
num_cat=1
split_feature=2 26 18 29 6 16 0 3 26 26 29 2 5 17
split_gain=353.103 277.211 251.928 160.327 116.308 105 93.0184 74.1778 68.808 60.8746 63.0965 49.4647 46.5078 53.8019
threshold=6005.5000000000009 0.14314900158859023 0.63333333333333341 7.8750000000000009 3.5000000000000004 7.1413842263815193 1.0000000180025095e-35 0 0.21811023622047243 0.14314900158859023 7.791666666666667 1849.5000000000002 1.5000000000000002 69.816666666666677
decision_type=2 2 2 2 2 2 2 1 2 2 2 2 2 2
left_child=1 2 3 -1 6 7 -5 -4 -3 -2 -11 -7 13 -8
right_child=9 8 5 4 -6 11 12 -9 -10 10 -12 -13 -14 -15
leaf_value=-0.0037059323971051373 -0.0039621498558921279 0.0044129369736429216 0.0074661700508570506 4.0240328204060406e-05 -0.0043587019317378843 0.0043683937751649114 0.015742500984546475 0.0024223726521051757 0.010823499881039422 0.0060455091413589724 -0.0021709058947777587 -0.0010195111719722492 0.0030411550032948343 0.0036806541848361128
leaf_weight=1295.5538874641061 1704.0408340469003 759.15040315687656 469.42120754718781 1145.9467318952084 344.06913857161999 185.39109222590923 60.2215291634202 547.56851577758789 168.76996330171824 102.23049988597631 290.77734303474426 535.81698719412088 323.73914735764265 64.515767320990562
leaf_count=13928 19241 6871 4076 11484 3741 1798 577 4937 1371 933 2836 5382 3175 606
internal_value=-5.26354e-05 0.00107367 0.000228998 -0.00125422 0.000379797 0.00299373 0.0014082 0.00485706 0.00558963 -0.00322576 -9.73617e-06 0.00035342 0.00488275 0.009584
internal_weight=7997.21 5900.16 4972.24 3234.05 1938.49 1738.2 1594.42 1016.99 927.92 2097.05 393.008 721.208 448.476 124.737
internal_count=80956 57946 49704 33511 19583 16193 15842 9013 8242 23010 3769 7180 4358 1183
cat_boundaries=0 1
cat_threshold=174
is_linear=0
shrinkage=0.009


Tree=43
num_leaves=15
num_cat=0
split_feature=2 16 16 28 26 26 26 18 10 26 29 6 26 0
split_gain=347.44 271.173 293.112 138.323 110.717 98.0483 76.4062 70.5913 82.2523 60.1306 61.7896 54.564 53.338 51.4148
threshold=6005.5000000000009 5.8452494861287336 7.0992729161423762 0.13171604033550574 0.14314900158859023 0.18369289340101522 0.12216941750690387 0.63333333333333341 2016.5000000000002 0.14314900158859023 7.791666666666667 3.5000000000000004 0.11675191968243116 1.0000000180025095e-35
decision_type=2 2 2 2 2 2 2 2 2 2 2 2 2 2
left_child=1 4 3 5 11 7 -4 8 -3 -2 -11 -1 -5 -9
right_child=9 2 6 12 -6 -7 -8 13 -10 10 -12 -13 -14 -15
leaf_value=-0.00141290666059667 -0.0039390675673972421 0.0037393756561437531 -0.0017439428451233214 0.0056059839508076602 0.0032274995395415035 0.016491866325225042 0.0022839505874712395 0.0038355186129608162 -0.0016734550547619813 0.0059641768218710303 -0.0021549753859052387 -0.0049096775380861463 0.012333312995680924 0.0092156999906550709
leaf_weight=1226.0261193364859 1698.6250881701708 563.52318421751261 1091.6014728993177 175.56853672116995 328.32833190262318 46.576464623212814 585.37801124155521 560.67810968309641 378.42762286961079 102.69123882800341 290.2934847548604 519.86072068661451 228.89046358317137 199.55703427642584
leaf_count=13084 19241 5084 11248 1535 3034 350 5527 4911 3803 933 2836 5790 1860 1720
internal_value=-5.20536e-05 0.0010634 0.00248365 0.00468104 -0.00155485 0.00357534 -0.00033252 0.00321568 0.00155528 -0.00320509 -9.47808e-06 -0.00245949 0.00943745 0.00526065
internal_weight=7996.03 5904.42 3830.2 2153.22 2074.22 1748.76 1676.98 1702.19 941.951 2091.61 392.985 1745.89 404.459 760.235
internal_count=80956 57946 36038 19263 21908 15868 16775 15518 8887 23010 3769 18874 3395 6631
is_linear=0
shrinkage=0.009


Tree=44
num_leaves=15
num_cat=0
split_feature=2 18 10 16 16 0 28 6 2 2 16 2 28 16
split_gain=341.837 266.584 154.274 155.634 139.666 80.7402 72.7783 70.7426 52.894 51.9583 51.4088 50.1864 48.9406 48.8703
threshold=6005.5000000000009 0.63333333333333341 2016.5000000000002 5.7717498456674869 7.1136814478742769 1.0000000180025095e-35 0.11598775392405726 2.5000000000000004 2582.5000000000005 12937.500000000002 6.6331661895692369 3888.5000000000005 0.13171604033550574 7.1705498468168676
decision_type=2 2 2 2 2 2 2 2 2 2 2 2 2 2
left_child=1 2 3 7 6 13 -3 8 -1 -2 -8 -6 -4 -5
right_child=9 4 12 5 11 -7 10 -9 -10 -11 -12 -13 -14 -15
leaf_value=0.0056480029351965721 -0.002230396202017869 0.0038805888533798806 -0.0032844385250014162 0.0033151464077417147 0.0022648891250745488 0.0069627988341840483 0.0061659767212911441 -0.0030851813789284999 -0.0012757746333448431 -0.0053335720046403167 0.012576349210911119 -0.0025058652541204815 0.0010175758326106666 -0.0011422749055142085
leaf_weight=161.50663656741381 1447.8184118121862 747.71847362071276 1278.6545129939914 598.31021949648857 622.9130093306303 348.71733939647675 294.67406265437603 698.67975724488497 196.46802195906639 638.3955709785223 163.51827903091908 248.90244027227163 253.64691300690174 294.88372560590506
leaf_count=1649 15653 6658 13603 5418 6015 3145 2504 7497 2080 7357 1330 2522 2567 2958
internal_value=-5.16074e-05 0.00105308 -0.000352668 0.00111923 0.00364918 0.00328146 0.0056345 -0.00141365 0.00182358 -0.00318451 0.00847557 0.00089239 -0.00256642 0.00183351
internal_weight=7994.81 5908.59 3830.87 2298.57 2077.73 1241.91 1205.91 1056.65 357.975 2086.21 458.192 871.815 1532.3 893.194
internal_count=80956 57946 38917 22747 19029 11521 10492 11226 3729 23010 3834 8537 16170 8376
is_linear=0
shrinkage=0.009


Tree=45
num_leaves=15
num_cat=1
split_feature=2 16 16 28 26 26 3 5 10 29 26 18 26 4
split_gain=295.366 259.943 300.508 128.871 109.532 91.2332 83.2721 77.9903 63.4997 54.4892 90.2364 75.8468 54.0853 48.1274
threshold=6192.5000000000009 5.8452494861287336 7.0992729161423762 0.13171604033550574 0.13607670175290895 0.18369289340101522 0 2.5000000000000004 2015.5000000000002 7.8750000000000009 0.12485294117647057 0.63333333333333341 0.14314900158859023 1.5000000000000002
decision_type=2 2 2 2 2 2 1 2 2 2 2 2 2 2
left_child=1 4 3 5 -1 7 -4 -3 -5 10 11 -2 -8 -14
right_child=9 2 6 8 -6 -7 12 -9 -10 -11 -12 -13 13 -15
leaf_value=-0.0027811685639384668 -0.0045353149264444155 0.0048426207797809167 -0.0042401357627137488 0.01436017449485949 0.0020196697867140654 0.015621999742182887 -0.00032668309650998319 0.00099055503837014772 0.0066181724422122654 -0.0041675148945104169 0.0063007949996291696 0.0026018664699239574 0.010048957693837455 0.0015212398999787174
leaf_weight=1594.9849218353629 415.45013201236725 944.91779315471649 369.90918643772602 128.29969305545092 505.10118091851473 48.749434299767017 1091.5097348019481 787.40969575941563 286.35210558772087 1292.8059743866324 113.2417239844799 168.1184741333127 80.589907594025135 169.65169603377581
leaf_count=17450 4807 8317 3834 1042 4796 363 11061 7415 2410 14375 1046 1828 705 1545
internal_value=-6.53377e-05 0.000928913 0.00230234 0.00450636 -0.00162217 0.00344579 -0.000519826 0.00309706 0.00903825 -0.00307181 -0.00102571 -0.00246367 0.000527034 0.00430645
internal_weight=7997.09 6007.48 3907.39 2195.73 2100.09 1781.08 1711.66 1732.33 414.652 1989.62 696.81 583.569 1341.75 250.242
internal_count=80994 58938 36692 19547 22246 16095 17145 15732 3452 22056 7681 6635 13311 2250
cat_boundaries=0 1
cat_threshold=322
is_linear=0
shrinkage=0.009


Tree=46
num_leaves=15
num_cat=0
split_feature=27 16 16 28 26 26 16 16 26 30 26 10 18 6
split_gain=286.268 215.95 206.83 141.534 102.314 81.804 70.7558 99.3209 65.3774 59.8368 59.7408 70.461 43.5898 39.8372
threshold=0.10055400351760012 5.7446425582262615 7.0992729161423762 0.12112027599021462 0.091798538177689418 0.14314900158859023 5.6374111063757883 7.0992729161423762 0.12485294117647057 10912.500000000002 0.16168154761904763 2016.5000000000002 0.63333333333333341 3.5000000000000004
decision_type=2 2 2 2 2 2 2 2 2 2 2 2 2 2
left_child=4 5 3 9 -1 13 -6 10 12 -3 -8 -12 -4 -2
right_child=1 2 8 -5 6 -7 7 -9 -10 -11 11 -13 -14 -15
leaf_value=-0.0054909485101531236 -0.0013636597509881943 0.0032037884696874252 -0.0031647734257494371 0.0076376574193654763 -0.0040387391343035418 0.0029866945324326672 0.00068896152355103963 -0.0031675079238038732 0.0029972627325440702 -0.003226531911329873 0.0032861460922124081 0.020431375066086017 0.00042136152210508142 -0.004689580667523648
leaf_weight=662.76693411916494 949.56934957206249 1275.9827042520046 519.36891981959343 677.72996953129768 601.75827426463366 271.53518014401197 795.28818614035845 615.97970731556416 394.88394606858492 127.6132295280695 72.480303138494492 27.374108679592609 574.27146233618259 429.24194229394197
leaf_count=7495 10385 11508 5598 5915 6609 2479 7862 6482 3583 1367 684 238 5910 4879
internal_value=-6.48002e-05 0.00117579 0.00242136 0.00425346 -0.0024012 -0.00151303 -0.00142753 -0.000381547 -0.000134428 0.00261255 0.00152566 0.00809212 -0.0012736 -0.00240585
internal_weight=7995.84 5220.2 3569.85 2081.33 2775.65 1650.35 2112.88 1511.12 1488.52 1403.6 895.143 99.8544 1093.64 1378.81
internal_count=80994 51624 33881 18790 29370 17743 21875 15266 15091 12875 8784 922 11508 15264
is_linear=0
shrinkage=0.009


Tree=47
num_leaves=15
num_cat=0
split_feature=2 26 18 29 6 28 1 5 29 26 18 26 30 8
split_gain=288.431 240.436 211.994 138.068 101.889 87.0529 72.027 63.7856 53.9412 87.4687 74.6792 53.9301 45.7334 45.5986
threshold=6192.5000000000009 0.14314900158859023 0.63333333333333341 7.791666666666667 3.5000000000000004 0.11598775392405726 1.0000000180025095e-35 3.5000000000000004 7.8750000000000009 0.12485294117647057 0.63333333333333341 0.18369289340101522 3238.5000000000005 1.5000000000000002
decision_type=2 2 2 2 2 2 2 2 2 2 2 2 2 2
left_child=1 2 3 -1 6 -4 7 13 9 10 -2 -3 -8 -5
right_child=8 11 5 4 -6 -7 12 -9 -10 -11 -12 -13 -14 -15
leaf_value=-0.0035657996308201597 -0.0044968293176103338 0.0039682353241823256 0.0011342903144462718 0.0092709599818874919 -0.0041682287791288209 0.0052954237752292181 0.010671846608526865 -0.002882884452204732 -0.0041358596029910108 0.0061774611364319833 0.0025888181351746676 0.0093917799135863171 0.0029049414379574319 0.00097209813218287447
leaf_weight=1261.0381928905845 413.02577786892653 771.78626599162817 1149.6407902091742 57.40290455520153 350.7328781709075 637.13962879776955 85.051791869103909 378.52691742777824 1286.9769012480974 114.00035067647696 168.2735233232379 188.67206229269505 240.95865570008755 891.47063480317593
leaf_count=13666 4807 6927 10860 577 3867 5687 798 3896 14375 1046 1828 1512 2352 8796
internal_value=-6.42576e-05 0.000916165 0.000129557 -0.00123238 0.000231459 0.00262334 0.00117039 0.000232214 -0.0030424 -0.0010052 -0.00243012 0.00504387 0.00496147 0.00148455
internal_weight=7994.7 6012.42 5051.96 3265.18 2004.14 1786.78 1653.41 1327.4 1982.28 695.3 581.299 960.458 326.01 948.874
internal_count=80994 58938 50499 33952 20286 16547 16419 13269 22056 7681 6635 8439 3150 9373
is_linear=0
shrinkage=0.009


Tree=48
num_leaves=15
num_cat=1
split_feature=2 16 16 28 26 26 3 5 10 29 26 18 26 26
split_gain=283.779 248.933 287.943 121.789 105.237 85.8423 81.48 74.6518 60.3479 53.3198 85.7332 73.606 51.3733 37.5013
threshold=6192.5000000000009 5.8452494861287336 7.0992729161423762 0.13171604033550574 0.13607670175290895 0.18369289340101522 0 2.5000000000000004 2015.5000000000002 7.8750000000000009 0.12485294117647057 0.63333333333333341 0.14314900158859023 0.1379044098070091
decision_type=2 2 2 2 2 2 1 2 2 2 2 2 2 2
left_child=1 4 3 5 -1 7 -4 -3 -5 10 11 -2 -8 -10
right_child=9 2 6 8 -6 -7 12 -9 13 -11 -12 -13 -14 -15
leaf_value=-0.0027384477315384381 -0.0044727046804576391 0.0047201921720827558 -0.0042104371451307339 0.013908949176352308 0.0019629168909678289 0.015054944520112246 -0.00032261516829137134 0.0009596876273605643 0.0044458277901822116 -0.0041122832133915098 0.006093702805641814 0.0025602431911552434 0.0041787533253264432 0.01201297938166886
leaf_weight=1586.914637863636 411.52358841150999 951.69889920949936 368.33219896256924 130.46768651157618 507.11880335211754 49.723126217722893 1091.0532034114003 789.26083264499903 215.40664092451334 1282.7259646579623 114.52616411447525 168.61980940401554 252.18507479131222 73.982008874416351
leaf_count=17450 4807 8317 3834 1042 4796 363 11061 7415 1848 14375 1046 1828 2250 562
internal_value=-6.36786e-05 0.000907365 0.00224599 0.00439213 -0.00159557 0.00336071 -0.000520632 0.0030207 0.00876784 -0.00302249 -0.000996891 -0.00241296 0.000512226 0.00641494
internal_weight=7993.54 6016.14 3922.11 2210.54 2094.03 1790.68 1711.57 1740.96 419.856 1977.4 694.67 580.143 1343.24 289.389
internal_count=80994 58938 36692 19547 22246 16095 17145 15732 3452 22056 7681 6635 13311 2410
cat_boundaries=0 1
cat_threshold=322
is_linear=0
shrinkage=0.009


Tree=49
num_leaves=15
num_cat=1
split_feature=2 16 16 28 26 26 3 5 10 29 26 26 1 29
split_gain=279.192 244.201 281.589 118.235 103.552 83.0987 80.3133 72.8381 58.0108 52.7036 84.0363 50.29 40.679 51.5938
threshold=6192.5000000000009 5.8452494861287336 7.0992729161423762 0.13171604033550574 0.13607670175290895 0.18369289340101522 0 2.5000000000000004 2015.5000000000002 7.8750000000000009 0.12485294117647057 0.14314900158859023 1.0000000180025095e-35 7.2083333333333348
decision_type=2 2 2 2 2 2 1 2 2 2 2 2 2 2
left_child=1 4 3 5 -1 7 -4 -3 -5 10 -2 -8 13 -10
right_child=9 2 6 8 -6 -7 11 -9 12 -11 -12 -13 -14 -15
leaf_value=-0.0027197569647807954 -0.0023959070480784467 0.0046614740083777114 -0.0041870467047934413 0.013649464960049649 0.0019423537635738096 0.014770528970141524 -0.00031979240325258004 0.00095035846666227295 0.01074201445999858 -0.0040887762731638662 0.0060115060589207691 0.0041283217338442656 0.013505343464578356 0.0016903188706166462
leaf_weight=1583.4562385082245 578.99623566865921 954.99999684095383 367.1182581409812 131.74745941162109 507.87276400625706 50.224079467356205 1090.7797499522567 789.8338805064559 76.973369345068932 1278.5092962756753 115.04627581685781 252.96604501456022 53.465148314833641 160.2530329823494
leaf_count=17450 6635 8317 3834 1042 4796 363 11061 7415 646 14375 1046 2250 436 1328
internal_value=-6.31526e-05 0.000898614 0.00222217 0.00433904 -0.00158324 0.00332239 -0.000516403 0.00298687 0.00863597 -0.00300266 -0.000988642 0.000507357 0.00632889 0.00466855
internal_weight=7992.24 6019.69 3928.36 2217.5 2091.33 1795.06 1710.86 1744.83 422.439 1972.55 694.043 1343.75 290.692 237.226
